{"learner":{"attributes":{"scikit_learn":"{\"_estimator_type\": \"classifier\"}"},"feature_names":[],"feature_types":[],"gradient_booster":{"gbtree":{"model":{"cats":{"enc":[],"feature_segments":[],"sorted_idx":[]},"gbtree_model_param":{"num_parallel_tree":"1","num_trees":"140"},"iteration_indptr":[0,1,2,3,4,5,6,7,8,9,10,11,12,13,14,15,16,17,18,19,20,21,22,23,24,25,26,27,28,29,30,31,32,33,34,35,36,37,38,39,40,41,42,43,44,45,46,47,48,49,50,51,52,53,54,55,56,57,58,59,60,61,62,63,64,65,66,67,68,69,70,71,72,73,74,75,76,77,78,79,80,81,82,83,84,85,86,87,88,89,90,91,92,93,94,95,96,97,98,99,100,101,102,103,104,105,106,107,108,109,110,111,112,113,114,115,116,117,118,119,120,121,122,123,124,125,126,127,128,129,130,131,132,133,134,135,136,137,138,139,140],"tree_info":[0,0,0,0,0,0,0,0,0,0,0,0,0,0,0,0,0,0,0,0,0,0,0,0,0,0,0,0,0,0,0,0,0,0,0,0,0,0,0,0,0,0,0,0,0,0,0,0,0,0,0,0,0,0,0,0,0,0,0,0,0,0,0,0,0,0,0,0,0,0,0,0,0,0,0,0,0,0,0,0,0,0,0,0,0,0,0,0,0,0,0,0,0,0,0,0,0,0,0,0,0,0,0,0,0,0,0,0,0,0,0,0,0,0,0,0,0,0,0,0,0,0,0,0,0,0,0,0,0,0,0,0,0,0,0,0,0,0,0,0],"trees":[{"base_weights":[-1.1915933E-2,-9.9128205E-1,7.978393E-1,3.5741737E-1,-1.4797776E0,1.2591529E0,3.8320765E-2,-2.3598172E-1,1.4780068E0,-1.61658E0,1.7501807E0,9.0466094E-1,1.6820638E0,1.2905757E0,-5.719989E-1,-5.2972347E-1,1.8256334E0,1.6853688E0,1.5883702E-1,-1.6904168E0,1.5983121E0,-1.3404256E-1,1.7846593E0,1.5101722E0,3.2615796E-1,1.4668663E0,1.8632551E0,-1.3197874E0,1.4764093E0,6.2647766E-1,-1.0454781E0,-1.1011404E0,5.935694E-1,-1.3636364E-1,1.9072583E0,1.3606757E0,1.9185475E0,-1.2301031E0,1.5603038E0,-1.7320093E0,6.74902E-1,1.8607099E0,-1.3844444E-1,1.5721452E0,1.3878097E-1,-7.7766526E-1,1.614088E0,1.4978406E0,-2.839068E-1,1.6461214E0,9.2816633E-1,1.7198097E0,1.9259999E0,-1.3979366E-1,1.8162645E0,-5.5527335E-1,1.6675472E0,1.5079463E0,1.5689828E-1,-1.3776133E0,1.0893666E0,-1.325728E-1,1.8608341E-2,1.3430636E-1,-8.429357E-3,-1.3605633E-1,1.3898437E-1,1.0158038E-1,-1.3808875E-1,9.992665E-2,1.3672978E-1,-1.3966265E-1,1.22342385E-1,1.19004175E-1,-1.3317072E-1,7.5963736E-2,-1.2307983E-1,1.0417058E-1,-7.0220135E-2,1.3356264E-1,1.820101E-2,1.3709113E-1,7.9658225E-2,1.0352366E-1,-9.982332E-2,1.2130383E-1,7.373648E-2,1.8916802E-2,1.163956E-1,6.885579E-2,-5.5076733E-2,4.2844117E-2,1.19809054E-1,1.1078482E-1,-2.3694877E-2,1.2667827E-1,9.9598385E-2,1.3703075E-1,1.2878664E-1,1.3654809E-1,-1.1666667E-1,7.103066E-2,-1.11785285E-1,-1.3838151E-1,1.18820116E-1,-7.685159E-2,1.1236633E-1,-6.075532E-2,1.0615932E-1,-1.09948084E-1,3.6394525E-2,-4.653037E-2,1.3319919E-1],"categories":[],"categories_nodes":[],"categories_segments":[],"categories_sizes":[],"default_left":[0,0,0,0,0,0,0,0,0,0,0,0,0,0,0,0,0,0,0,0,0,0,0,0,0,0,0,0,0,0,0,0,0,0,0,0,0,0,0,0,0,0,0,0,0,0,0,0,0,0,0,0,0,0,0,0,0,0,0,0,0,0,0,0,0,0,0,0,0,0,0,0,0,0,0,0,0,0,0,0,0,0,0,0,0,0,0,0,0,0,0,0,0,0,0,0,0,0,0,0,0,0,0,0,0,0,0,0,0,0,0,0,0],"id":0,"left_children":[1,3,5,7,9,11,13,15,17,19,21,23,25,27,29,31,33,35,37,39,41,-1,43,45,47,49,51,53,55,57,59,61,63,-1,65,67,69,71,73,75,77,79,-1,81,-1,83,85,87,89,91,93,95,97,-1,99,101,103,105,107,109,111,-1,-1,-1,-1,-1,-1,-1,-1,-1,-1,-1,-1,-1,-1,-1,-1,-1,-1,-1,-1,-1,-1,-1,-1,-1,-1,-1,-1,-1,-1,-1,-1,-1,-1,-1,-1,-1,-1,-1,-1,-1,-1,-1,-1,-1,-1,-1,-1,-1,-1,-1,-1],"loss_changes":[1.4504966E5,5.45396E4,3.5079812E4,1.4637164E4,2.6855281E4,9.336633E3,2.8915895E4,8.716442E3,2.0843652E3,1.3842234E4,3.155161E2,1.1869867E4,1.1047109E3,6.015832E3,1.4434987E4,8.0867974E3,5.5664453E2,4.9598633E2,2.0191357E3,5.6081094E3,1.2324358E3,0E0,9.98208E1,3.9375156E3,1.2388939E4,1.2525918E3,1.354336E2,1.7547086E3,4.4954473E3,2.981683E3,1.2930395E4,9.04973E3,4.0195947E3,0E0,5.333584E2,8.340239E2,6.254297E1,1.1905568E3,2.530752E2,4.1476406E3,1.3464948E3,9.196387E1,0E0,1.9651636E2,0E0,1.0556001E3,1.0533789E3,1.2012432E3,7.2665635E3,6.5825E2,2.69056E3,1.22887695E2,2.5570312E1,0E0,7.2051025E1,1.6304475E3,1.1554688E3,6.3650684E2,6.552249E3,5.7818496E3,3.5049536E3,0E0,0E0,0E0,0E0,0E0,0E0,0E0,0E0,0E0,0E0,0E0,0E0,0E0,0E0,0E0,0E0,0E0,0E0,0E0,0E0,0E0,0E0,0E0,0E0,0E0,0E0,0E0,0E0,0E0,0E0,0E0,0E0,0E0,0E0,0E0,0E0,0E0,0E0,0E0,0E0,0E0,0E0,0E0,0E0,0E0,0E0,0E0,0E0,0E0,0E0,0E0,0E0],"parents":[2147483647,0,0,1,1,2,2,3,3,4,4,5,5,6,6,7,7,8,8,9,9,10,10,11,11,12,12,13,13,14,14,15,15,16,16,17,17,18,18,19,19,20,20,22,22,23,23,24,24,25,25,26,26,27,27,28,28,29,29,30,30,31,31,32,32,34,34,35,35,36,36,37,37,38,38,39,39,40,40,41,41,43,43,45,45,46,46,47,47,48,48,49,49,50,50,51,51,52,52,54,54,55,55,56,56,57,57,58,58,59,59,60,60],"right_children":[2,4,6,8,10,12,14,16,18,20,22,24,26,28,30,32,34,36,38,40,42,-1,44,46,48,50,52,54,56,58,60,62,64,-1,66,68,70,72,74,76,78,80,-1,82,-1,84,86,88,90,92,94,96,98,-1,100,102,104,106,108,110,112,-1,-1,-1,-1,-1,-1,-1,-1,-1,-1,-1,-1,-1,-1,-1,-1,-1,-1,-1,-1,-1,-1,-1,-1,-1,-1,-1,-1,-1,-1,-1,-1,-1,-1,-1,-1,-1,-1,-1,-1,-1,-1,-1,-1,-1,-1,-1,-1,-1,-1,-1,-1],"split_conditions":[8.0064764E2,9.42516E-3,2.254505E0,2.0234466E0,1.0445858E-2,2.2882874E0,1.735925E-1,2.3174646E0,6.225264E-1,2.1609017E-1,2.9148844E-6,3.4499248E3,2.756943E0,4.1213502E-6,3.2693067E-6,5.2436562E-6,8.984791E-3,2.4756749E0,6.7375076E-6,2.709045E0,1.8451929E2,-1.3404256E-1,1.5607417E-5,1.0724369E1,1.689717E-1,6.698495E1,2.997838E0,6.346332E-2,4.837862E0,2.3146455E0,4.4243643E-6,3.776026E-1,6.0479546E-1,-1.3636364E-1,-6.5220326E-2,2.7520807E-2,3.0176717E-1,2.89285E0,5.6454446E-3,6.303689E-1,2.0442149E-2,1.5292509E0,-1.3844444E-1,6.8191553E-6,1.3878097E-1,7.951685E-2,2.1545944E0,5.2525067E0,3.2693067E-6,6.2961526E0,2.1399848E0,2.1318188E0,6.4169235E1,-1.3979366E-1,3.9010983E1,4.852475E-3,1.8562069E3,1.9197188E2,3.2256637E-2,1.7123146E-5,2.600063E-1,-1.325728E-1,1.8608341E-2,1.3430636E-1,-8.429357E-3,-1.3605633E-1,1.3898437E-1,1.0158038E-1,-1.3808875E-1,9.992665E-2,1.3672978E-1,-1.3966265E-1,1.22342385E-1,1.19004175E-1,-1.3317072E-1,7.5963736E-2,-1.2307983E-1,1.0417058E-1,-7.0220135E-2,1.3356264E-1,1.820101E-2,1.3709113E-1,7.9658225E-2,1.0352366E-1,-9.982332E-2,1.2130383E-1,7.373648E-2,1.8916802E-2,1.163956E-1,6.885579E-2,-5.5076733E-2,4.2844117E-2,1.19809054E-1,1.1078482E-1,-2.3694877E-2,1.2667827E-1,9.9598385E-2,1.3703075E-1,1.2878664E-1,1.3654809E-1,-1.1666667E-1,7.103066E-2,-1.11785285E-1,-1.3838151E-1,1.18820116E-1,-7.685159E-2,1.1236633E-1,-6.075532E-2,1.0615932E-1,-1.09948084E-1,3.6394525E-2,-4.653037E-2,1.3319919E-1],"split_indices":[5,17,2,18,10,18,20,8,16,22,13,5,18,13,13,13,22,18,13,18,9,0,6,4,20,4,18,10,4,2,13,20,16,0,21,22,20,18,17,18,22,19,0,6,0,15,2,4,13,4,2,2,4,0,4,22,5,9,22,6,21,0,0,0,0,0,0,0,0,0,0,0,0,0,0,0,0,0,0,0,0,0,0,0,0,0,0,0,0,0,0,0,0,0,0,0,0,0,0,0,0,0,0,0,0,0,0,0,0,0,0,0,0],"split_type":[0,0,0,0,0,0,0,0,0,0,0,0,0,0,0,0,0,0,0,0,0,0,0,0,0,0,0,0,0,0,0,0,0,0,0,0,0,0,0,0,0,0,0,0,0,0,0,0,0,0,0,0,0,0,0,0,0,0,0,0,0,0,0,0,0,0,0,0,0,0,0,0,0,0,0,0,0,0,0,0,0,0,0,0,0,0,0,0,0,0,0,0,0,0,0,0,0,0,0,0,0,0,0,0,0,0,0,0,0,0,0,0,0],"sum_hessian":[1.8289978E5,8.278023E4,1.00119555E5,2.2010678E4,6.076955E4,6.2287152E4,3.7832402E4,1.4390889E4,7.6197896E3,5.8300766E4,2.468785E3,3.3886223E4,2.8400928E4,1.2396378E4,2.5436025E4,1.2596819E4,1.794069E3,6.584488E3,1.0353015E3,5.699229E4,1.3084746E3,2.25E1,2.446285E3,1.655584E4,1.7330385E4,1.2986359E4,1.5414569E4,8.234504E2,1.1572928E4,7.203106E3,1.823292E4,8.349477E3,4.2473433E3,3.75E1,1.756569E3,2.755035E3,3.8294531E3,5.20036E2,5.1526556E2,5.6007703E4,9.845875E2,1.2194746E3,8.9E1,1.1839814E3,1.2623035E3,7.190292E2,1.5836811E4,5.933371E3,1.1397014E4,9.742453E3,3.2439065E3,4.699376E3,1.0715193E4,6.775E2,1.4595038E2,9.9497955E2,1.0577948E4,2.5027917E3,4.700314E3,1.5778485E4,2.4544338E3,5.28445E3,3.0650261E3,1.4866254E3,2.7607178E3,3.45E1,1.722069E3,2.682785E3,7.225E1,2.5577917E2,3.5736738E3,4.14E2,1.0603599E2,4.9576553E2,1.95E1,5.171439E2,5.549056E4,6.632587E2,3.213288E2,1.1842675E3,3.52072E1,6.246731E2,5.5930835E2,1.6020038E2,5.588288E2,1.3065848E4,2.770963E3,7.031439E2,5.2302275E3,3.2370708E3,8.1599424E3,5.8043677E2,9.162016E3,2.1386409E3,1.1052655E3,3.603638E3,1.0957383E3,7.8258926E3,2.8893003E3,1.4095038E2,5E0,3.9685797E2,5.981216E2,8.55E1,1.0492448E4,8.97072E1,2.4130845E3,2.6803735E3,2.0199406E3,1.4321454E4,1.4570311E3,7.7769354E2,1.6767401E3],"tree_param":{"num_deleted":"0","num_feature":"23","num_nodes":"113","size_leaf_vector":"1"}},{"base_weights":[5.8771987E-3,-9.246727E-1,7.6356417E-1,3.0663946E-1,-1.3618426E0,1.1702974E0,7.646065E-2,-2.6940945E-1,1.2802474E0,-1.5321217E0,1.067811E0,8.3583605E-1,1.5676571E0,1.2262627E0,-4.8986718E-1,-5.404237E-1,1.6927745E0,1.5202609E0,5.268661E-2,-1.5984669E0,1.052242E0,1.8295825E0,-3.905332E-1,1.41334E0,2.6624796E-1,1.3601875E0,1.7400053E0,-1.4083548E0,1.364581E0,-9.523632E-1,2.7768064E-1,-1.6505412E0,2.2441144E-1,-1.2758881E-1,1.7737495E0,4.7563726E-1,1.6817956E0,-1.5840335E0,1.0603384E0,-1.6356647E0,1.4383444E0,-1.0831517E0,1.3510766E0,1.8349121E0,-1.048763E-1,-1.4447579E0,1.665893E0,-8.753E-1,1.5077108E0,-3.116169E-1,1.4220698E0,1.5492373E0,8.431887E-1,1.7933543E0,1.5971909E0,-1.7532753E0,1.0105256E0,-2.9164764E-1,1.5180262E0,-1.2860645E0,1.5504575E-1,-1.7125206E-1,1.2497966E0,-1.2644958E-1,1.315869E-1,6.4492196E-2,-9.082592E-2,-1.2738608E-1,1.2972362E-1,-7.253268E-2,1.110081E-1,8.271224E-2,1.3023324E-1,-1.3173579E-1,9.1219135E-2,-1.142923E-2,1.13510795E-1,8.5848205E-2,-1.1707908E-1,1.3505396E-1,-1.3038482E-1,-1.3674243E-1,9.584769E-2,9.977283E-2,-1.3395697E-1,1.0213112E-1,1.3169514E-1,1.1814578E-1,-1.1851705E-1,1.2777035E-1,-1.5247928E-3,7.673003E-2,-1.0204928E-1,4.7938976E-2,1.1088612E-1,1.0789835E-1,-3.958444E-2,-6.569443E-2,1.2151037E-1,3.8096707E-2,1.1274088E-1,1.10408954E-1,-3.8422337E-3,9.387503E-2,1.2717834E-1,1.216661E-1,6.829107E-2,1.2583043E-1,-1.3241637E-1,1.2366212E-1,-1.2404846E-1,7.1797065E-2,-1.01010345E-1,-1.2953423E-1,1.0828942E-1,-5.3571317E-2,-1.13684334E-1,8.113653E-2,-3.2134667E-2,5.834139E-2,-5.4900404E-2,1.0905038E-1,1.3583488E-2],"categories":[],"categories_nodes":[],"categories_segments":[],"categories_sizes":[],"default_left":[0,0,0,0,0,0,0,0,0,0,0,0,0,0,0,0,0,0,0,0,0,0,0,0,0,0,0,0,0,0,0,0,0,0,0,0,0,0,0,0,0,0,0,0,0,0,0,0,0,0,0,0,0,0,0,0,0,0,0,0,0,0,0,0,0,0,0,0,0,0,0,0,0,0,0,0,0,0,0,0,0,0,0,0,0,0,0,0,0,0,0,0,0,0,0,0,0,0,0,0,0,0,0,0,0,0,0,0,0,0,0,0,0,0,0,0,0,0,0,0,0,0,0],"id":1,"left_children":[1,3,5,7,9,11,13,15,17,19,21,23,25,27,29,31,33,35,37,39,41,43,45,47,49,51,53,55,57,59,61,63,65,-1,67,69,71,73,75,77,79,81,83,85,-1,87,89,91,93,95,97,99,101,103,105,107,109,111,113,115,117,119,121,-1,-1,-1,-1,-1,-1,-1,-1,-1,-1,-1,-1,-1,-1,-1,-1,-1,-1,-1,-1,-1,-1,-1,-1,-1,-1,-1,-1,-1,-1,-1,-1,-1,-1,-1,-1,-1,-1,-1,-1,-1,-1,-1,-1,-1,-1,-1,-1,-1,-1,-1,-1,-1,-1,-1,-1,-1,-1,-1,-1],"loss_changes":[1.29497875E5,4.4372312E4,2.8292406E4,1.2114084E4,2.5169305E4,8.450281E3,2.4513793E4,7.217662E3,2.3655498E3,9.749031E3,4.427469E3,1.1358367E4,1.0368125E3,4.529166E3,8.954066E3,1.0125173E4,4.721255E2,1.1324707E3,2.1690383E3,6.2634688E3,9.098352E2,4.917578E1,2.9683164E3,3.7046016E3,1.1612768E4,1.2880742E3,1.1805859E2,5.192052E2,3.0003418E3,5.8165586E3,4.139413E3,2.6804102E3,7.490642E3,0E0,4.631797E2,1.513604E3,5.176113E2,4.3350732E2,5.5926715E2,5.7838906E3,1.0915139E3,3.7684424E2,3.055376E2,4.28916E1,0E0,7.0687036E2,1.24892944E2,7.821514E2,1.0338711E3,5.454098E3,4.2943174E3,5.946113E2,2.3302397E3,1.2018359E2,3.771416E2,2.7030115E2,1.6730374E2,1.5208073E3,1.0569531E3,2.1276367E3,2.2483154E3,3.9974314E3,9.742617E2,0E0,0E0,0E0,0E0,0E0,0E0,0E0,0E0,0E0,0E0,0E0,0E0,0E0,0E0,0E0,0E0,0E0,0E0,0E0,0E0,0E0,0E0,0E0,0E0,0E0,0E0,0E0,0E0,0E0,0E0,0E0,0E0,0E0,0E0,0E0,0E0,0E0,0E0,0E0,0E0,0E0,0E0,0E0,0E0,0E0,0E0,0E0,0E0,0E0,0E0,0E0,0E0,0E0,0E0,0E0,0E0,0E0,0E0,0E0,0E0],"parents":[2147483647,0,0,1,1,2,2,3,3,4,4,5,5,6,6,7,7,8,8,9,9,10,10,11,11,12,12,13,13,14,14,15,15,16,16,17,17,18,18,19,19,20,20,21,21,22,22,23,23,24,24,25,25,26,26,27,27,28,28,29,29,30,30,31,31,32,32,34,34,35,35,36,36,37,37,38,38,39,39,40,40,41,41,42,42,43,43,45,45,46,46,47,47,48,48,49,49,50,50,51,51,52,52,53,53,54,54,55,55,56,56,57,57,58,58,59,59,60,60,61,61,62,62],"right_children":[2,4,6,8,10,12,14,16,18,20,22,24,26,28,30,32,34,36,38,40,42,44,46,48,50,52,54,56,58,60,62,64,66,-1,68,70,72,74,76,78,80,82,84,86,-1,88,90,92,94,96,98,100,102,104,106,108,110,112,114,116,118,120,122,-1,-1,-1,-1,-1,-1,-1,-1,-1,-1,-1,-1,-1,-1,-1,-1,-1,-1,-1,-1,-1,-1,-1,-1,-1,-1,-1,-1,-1,-1,-1,-1,-1,-1,-1,-1,-1,-1,-1,-1,-1,-1,-1,-1,-1,-1,-1,-1,-1,-1,-1,-1,-1,-1,-1,-1,-1,-1,-1,-1],"split_conditions":[8.0064764E2,9.42516E-3,2.2660997E0,1.9575702E0,2.3372316E0,2.2882874E0,1.735925E-1,2.3174646E0,6.107789E-1,2.709045E0,2.870356E-3,3.4499248E3,2.756943E0,2.6171333E-1,1.9539239E-1,1.5930192E0,8.984791E-3,5.92084E-1,1.7401716E0,4.6892574E1,-3.7487876E-1,3.2221313E0,3.0007956E0,1.0724369E1,3.2993047E-3,6.519793E1,6.519793E1,2.1239046E1,4.684598E0,2.326041E0,8.544781E0,1.1386563E0,6.3909376E-3,-1.2758881E-1,-6.5220326E-2,1.5652007E0,3.6097273E-1,2.3174646E0,2.4297668E-3,6.303689E-1,3.236074E-1,3.172173E-1,9.9124503E-1,2.4090114E0,-1.048763E-1,1.3901836E0,5.8363754E-1,6.158098E-1,5.3815687E-1,1.414168E-1,5.9041243E0,6.1666427E0,2.1259441E0,1.05350485E1,2.1470056E0,3.418385E-1,-1.0497558E0,1.581994E-2,1.8562069E3,1.6921221E0,1.5907767E0,1.6611899E0,5.4627124E3,-1.2644958E-1,1.315869E-1,6.4492196E-2,-9.082592E-2,-1.2738608E-1,1.2972362E-1,-7.253268E-2,1.110081E-1,8.271224E-2,1.3023324E-1,-1.3173579E-1,9.1219135E-2,-1.142923E-2,1.13510795E-1,8.5848205E-2,-1.1707908E-1,1.3505396E-1,-1.3038482E-1,-1.3674243E-1,9.584769E-2,9.977283E-2,-1.3395697E-1,1.0213112E-1,1.3169514E-1,1.1814578E-1,-1.1851705E-1,1.2777035E-1,-1.5247928E-3,7.673003E-2,-1.0204928E-1,4.7938976E-2,1.1088612E-1,1.0789835E-1,-3.958444E-2,-6.569443E-2,1.2151037E-1,3.8096707E-2,1.1274088E-1,1.10408954E-1,-3.8422337E-3,9.387503E-2,1.2717834E-1,1.216661E-1,6.829107E-2,1.2583043E-1,-1.3241637E-1,1.2366212E-1,-1.2404846E-1,7.1797065E-2,-1.01010345E-1,-1.2953423E-1,1.0828942E-1,-5.3571317E-2,-1.13684334E-1,8.113653E-2,-3.2134667E-2,5.834139E-2,-5.4900404E-2,1.0905038E-1,1.3583488E-2],"split_indices":[5,17,2,18,1,18,20,8,16,18,12,5,18,16,21,0,22,1,0,11,7,7,1,4,12,4,4,4,4,18,11,1,17,0,21,7,20,8,12,18,16,3,19,1,0,11,19,1,1,20,4,4,2,4,2,1,19,22,5,0,0,0,5,0,0,0,0,0,0,0,0,0,0,0,0,0,0,0,0,0,0,0,0,0,0,0,0,0,0,0,0,0,0,0,0,0,0,0,0,0,0,0,0,0,0,0,0,0,0,0,0,0,0,0,0,0,0,0,0,0,0,0,0],"split_type":[0,0,0,0,0,0,0,0,0,0,0,0,0,0,0,0,0,0,0,0,0,0,0,0,0,0,0,0,0,0,0,0,0,0,0,0,0,0,0,0,0,0,0,0,0,0,0,0,0,0,0,0,0,0,0,0,0,0,0,0,0,0,0,0,0,0,0,0,0,0,0,0,0,0,0,0,0,0,0,0,0,0,0,0,0,0,0,0,0,0,0,0,0,0,0,0,0,0,0,0,0,0,0,0,0,0,0,0,0,0,0,0,0,0,0,0,0,0,0,0,0,0,0],"sum_hessian":[1.8366584E5,8.242981E4,1.0123604E5,2.1598053E4,6.083176E4,6.35919E4,3.764414E4,1.3569934E4,8.0281196E3,5.6848016E4,3.9837473E3,3.4530426E4,2.9061469E4,1.2422291E4,2.5221848E4,1.1923765E4,1.6461697E3,6.7149663E3,1.313153E3,5.5425523E4,1.4224915E3,2.6166672E3,1.3670802E3,1.7145336E4,1.7385092E4,1.3191124E4,1.5870346E4,6.19185E2,1.1803105E4,1.5738293E4,9.483556E3,4.8634976E3,7.0602666E3,3.6579685E1,1.60959E3,8.9982935E2,5.815137E3,5.0016586E2,8.129871E2,5.475529E4,6.702339E2,1.743079E2,1.2481836E3,2.6129312E3,3.7361014E0,9.039623E2,4.631179E2,6.786534E2,1.6466682E4,1.1590856E4,5.7942363E3,9.657642E3,3.533483E3,1.1545797E4,4.3245483E3,5.42152E2,7.7033035E1,1.0007283E3,1.0802377E4,1.2093834E4,3.6444595E3,6.4881074E3,2.9954478E3,4.6583003E3,2.0519707E2,4.8429995E3,2.217267E3,3.434083E1,1.5752491E3,3.8102737E2,5.18802E2,1.5325507E3,4.2825864E3,4.536999E2,4.6465954E1,2.5586494E2,5.571222E2,6.964338E2,5.4058855E4,5.838116E2,8.6422295E1,1.2880199E2,4.5505917E1,1.2209785E3,2.7205112E1,2.909209E2,2.3220103E3,6.5974495E1,8.379878E2,4.2307748E2,4.004041E1,1.545949E2,5.240585E2,1.3994288E3,1.5067253E4,1.396054E3,1.0194803E4,6.7962744E2,5.114609E3,5.561707E2,9.101471E3,1.9438435E3,1.5896394E3,5.726619E2,1.0973135E4,3.5239858E3,8.005627E2,1.9886923E1,5.22265E2,6.086144E1,1.6171598E1,4.667769E2,5.3395135E2,9.156048E1,1.0710817E4,4.7612847E3,7.3325493E3,1.3827823E3,2.2616772E3,2.4585195E3,4.029588E3,2.3184504E3,6.7699725E2],"tree_param":{"num_deleted":"0","num_feature":"23","num_nodes":"123","size_leaf_vector":"1"}},{"base_weights":[3.398693E-3,-8.5874796E-1,7.10193E-1,-1.0724566E0,1.6141646E0,1.0992804E0,4.641197E-2,1.423865E-1,-1.3799331E0,1.1599711E0,1.809608E0,8.4989923E-1,1.5660939E0,-4.3123206E-1,1.2978837E0,-1.5379266E-1,1.6828178E0,1.4913512E0,-1.4521439E0,-3.4566996E-1,1.6306539E0,1.8429776E0,1.7475119E0,1.3756146E0,2.2118376E-1,1.6547631E0,9.7974104E-1,1.5426878E0,-6.9785607E-1,1.5248889E0,2.4084064E-1,-1.3547076E0,6.5541685E-1,-1.2459454E-1,1.7321448E0,-1.420848E0,1.9182847E0,-1.5042742E0,1.4582103E0,-1.3228422E-1,1.5186406E0,1.6877269E0,-1.2542567E-1,1.9299432E0,1.253312E-1,1.150202E0,1.2555261E-1,1.507367E0,5.2557015E-1,-2.0999283E-1,1.4521793E0,1.4694624E0,1.726754E0,-1.1582161E0,1.5410529E0,-1.313411E-1,1.578182E0,-1.0208143E0,1.1689055E0,-1.4643376E0,1.5932662E0,-4.2794827E-1,1.8079493E0,1.2881018E-1,-1.1152879E-1,9.844349E-2,-9.5909287E-4,1.2368777E-1,-1.2608567E-1,1.0605763E-1,-1.2514012E-1,1.3689953E-1,-1.1722493E-1,8.5310295E-2,-1.0803969E-1,1.1310651E-1,-1.2925304E-1,1.1854753E-1,-1.248845E-1,6.6390194E-2,1.2397965E-1,1.3680631E-1,1.24077804E-1,1.2271906E-1,-1.3035381E-1,2.7586756E-2,1.08575426E-1,-8.473504E-2,5.385506E-2,1.09070785E-1,-3.6535144E-2,1.1077969E-1,2.0890664E-2,8.8078804E-2,1.1688243E-1,1.1046987E-1,1.22925125E-1,1.2347011E-1,-1.2132949E-1,1.1331063E-1,-1.4254041E-1,1.19657695E-1,5.8715247E-2,3.104697E-2,-9.330024E-2,1.0737547E-1,2.3687243E-2,1.1377117E-1,-1.2914042E-1,-1.0767017E-2,1.1421208E-1,-9.9735096E-2,1.053234E-1,-1.0441021E-1,1.27812E-1],"categories":[],"categories_nodes":[],"categories_segments":[],"categories_sizes":[],"default_left":[0,0,0,0,0,0,0,0,0,0,0,0,0,0,0,0,0,0,0,0,0,0,0,0,0,0,0,0,0,0,0,0,0,0,0,0,0,0,0,0,0,0,0,0,0,0,0,0,0,0,0,0,0,0,0,0,0,0,0,0,0,0,0,0,0,0,0,0,0,0,0,0,0,0,0,0,0,0,0,0,0,0,0,0,0,0,0,0,0,0,0,0,0,0,0,0,0,0,0,0,0,0,0,0,0,0,0,0,0,0,0,0,0,0,0],"id":2,"left_children":[1,3,5,7,9,11,13,15,17,19,21,23,25,27,29,31,33,35,37,39,41,43,45,47,49,51,53,55,57,59,61,63,65,-1,67,69,71,73,75,-1,77,79,-1,81,-1,83,-1,85,87,89,91,93,95,97,99,-1,101,103,105,107,109,111,113,-1,-1,-1,-1,-1,-1,-1,-1,-1,-1,-1,-1,-1,-1,-1,-1,-1,-1,-1,-1,-1,-1,-1,-1,-1,-1,-1,-1,-1,-1,-1,-1,-1,-1,-1,-1,-1,-1,-1,-1,-1,-1,-1,-1,-1,-1,-1,-1,-1,-1,-1,-1],"loss_changes":[1.1090323E5,4.3331582E4,2.5829484E4,2.8190156E4,5.7687695E2,7.3387734E3,2.209359E4,6.955161E3,1.2489109E4,1.3931265E3,6.2246094E0,1.35839375E4,1.1397695E3,1.4079945E4,2.4495332E3,1.2426674E4,4.2298926E2,1.8402903E3,8.91532E3,1.3524391E3,2.9547046E2,1.0005859E1,4.2339844E1,2.5059688E3,9.934956E3,2.5183203E2,3.4654097E3,3.8931396E2,1.4210175E4,1.7202188E3,1.8937651E3,3.9263623E3,3.8386294E3,0E0,3.0148145E2,2.068663E2,1.76646E2,6.1545547E3,5.4164844E2,0E0,1.260213E2,8.9163086E1,0E0,7.536621E-1,0E0,2.1817227E2,0E0,9.423789E2,1.2728264E3,7.646829E3,7.299541E2,2.2386523E2,5.704297E1,1.0125541E3,6.385952E2,0E0,3.0431885E2,9.181828E3,1.0534312E3,2.2458746E2,5.505918E2,2.4424524E3,3.4707886E1,0E0,0E0,0E0,0E0,0E0,0E0,0E0,0E0,0E0,0E0,0E0,0E0,0E0,0E0,0E0,0E0,0E0,0E0,0E0,0E0,0E0,0E0,0E0,0E0,0E0,0E0,0E0,0E0,0E0,0E0,0E0,0E0,0E0,0E0,0E0,0E0,0E0,0E0,0E0,0E0,0E0,0E0,0E0,0E0,0E0,0E0,0E0,0E0,0E0,0E0,0E0,0E0],"parents":[2147483647,0,0,1,1,2,2,3,3,4,4,5,5,6,6,7,7,8,8,9,9,10,10,11,11,12,12,13,13,14,14,15,15,16,16,17,17,18,18,19,19,20,20,21,21,22,22,23,23,24,24,25,25,26,26,27,27,28,28,29,29,30,30,31,31,32,32,34,34,35,35,36,36,37,37,38,38,40,40,41,41,43,43,45,45,47,47,48,48,49,49,50,50,51,51,52,52,53,53,54,54,56,56,57,57,58,58,59,59,60,60,61,61,62,62],"right_children":[2,4,6,8,10,12,14,16,18,20,22,24,26,28,30,32,34,36,38,40,42,44,46,48,50,52,54,56,58,60,62,64,66,-1,68,70,72,74,76,-1,78,80,-1,82,-1,84,-1,86,88,90,92,94,96,98,100,-1,102,104,106,108,110,112,114,-1,-1,-1,-1,-1,-1,-1,-1,-1,-1,-1,-1,-1,-1,-1,-1,-1,-1,-1,-1,-1,-1,-1,-1,-1,-1,-1,-1,-1,-1,-1,-1,-1,-1,-1,-1,-1,-1,-1,-1,-1,-1,-1,-1,-1,-1,-1,-1,-1,-1,-1,-1],"split_conditions":[8.0064764E2,5.854118E-3,2.2660997E0,7.9368595E-3,1.5935516E0,1.6436168E-5,4.4621293E-6,2.3174646E0,-1.7878041E0,5.1599975E0,1.3844772E-1,3.425292E3,7.8063145E3,-1.8092033E0,6.412214E-1,1.5926164E0,4.4653746E-3,5.9604287E0,4.9156776E-1,1.4040455E-5,2.4218801E-2,2.0234466E0,3.7525747E-6,2.1966784E-3,1.7498505E-1,1.9455914E-5,-7.1899754E-1,1.300659E-2,1.7564611E-5,-5.132812E-1,6.568304E-2,-1.8092033E0,-1.3587508E0,-1.2459454E-1,1.1948116E0,8.436326E-3,3.3452332E-1,6.303689E-1,2.9936573E-1,-1.3228422E-1,3.130206E-1,1.3942231E0,-1.2542567E-1,8.985409E-1,1.253312E-1,4.636888E-6,1.2555261E-1,1.1918345E-3,1.0446113E0,-1.8092033E0,-1.3968397E0,6.726339E-1,6.7903295E-2,-3.8795678E-3,5.550142E-3,-1.313411E-1,-1.8153843E0,3.174714E-6,1.8037373E-1,2.2788732E0,1.0676608E3,4.9049693E-1,-1.6412147E0,1.2881018E-1,-1.1152879E-1,9.844349E-2,-9.5909287E-4,1.2368777E-1,-1.2608567E-1,1.0605763E-1,-1.2514012E-1,1.3689953E-1,-1.1722493E-1,8.5310295E-2,-1.0803969E-1,1.1310651E-1,-1.2925304E-1,1.1854753E-1,-1.248845E-1,6.6390194E-2,1.2397965E-1,1.3680631E-1,1.24077804E-1,1.2271906E-1,-1.3035381E-1,2.7586756E-2,1.08575426E-1,-8.473504E-2,5.385506E-2,1.09070785E-1,-3.6535144E-2,1.1077969E-1,2.0890664E-2,8.8078804E-2,1.1688243E-1,1.1046987E-1,1.22925125E-1,1.2347011E-1,-1.2132949E-1,1.1331063E-1,-1.4254041E-1,1.19657695E-1,5.8715247E-2,3.104697E-2,-9.330024E-2,1.0737547E-1,2.3687243E-2,1.1377117E-1,-1.2914042E-1,-1.0767017E-2,1.1421208E-1,-9.9735096E-2,1.053234E-1,-1.0441021E-1,1.27812E-1],"split_indices":[5,10,2,17,0,6,13,8,14,11,15,5,5,14,16,0,17,11,17,6,17,18,13,12,17,6,7,16,6,21,10,14,14,0,0,17,15,18,20,0,16,0,0,20,0,6,0,12,2,14,14,7,10,20,12,0,14,13,20,2,5,21,19,0,0,0,0,0,0,0,0,0,0,0,0,0,0,0,0,0,0,0,0,0,0,0,0,0,0,0,0,0,0,0,0,0,0,0,0,0,0,0,0,0,0,0,0,0,0,0,0,0,0,0,0],"split_type":[0,0,0,0,0,0,0,0,0,0,0,0,0,0,0,0,0,0,0,0,0,0,0,0,0,0,0,0,0,0,0,0,0,0,0,0,0,0,0,0,0,0,0,0,0,0,0,0,0,0,0,0,0,0,0,0,0,0,0,0,0,0,0,0,0,0,0,0,0,0,0,0,0,0,0,0,0,0,0,0,0,0,0,0,0,0,0,0,0,0,0,0,0,0,0,0,0,0,0,0,0,0,0,0,0,0,0,0,0,0,0,0,0,0,0],"sum_hessian":[1.8199742E5,8.1988164E4,1.0000926E5,7.54669E4,6.521268E3,6.3050438E4,3.6958816E4,1.5242834E4,6.0224062E4,1.964011E3,4.557257E3,4.1097926E4,2.195251E4,2.6749936E4,1.0208881E4,1.2785469E4,2.4573655E3,1.4769553E3,5.8747105E4,4.6781354E2,1.4961974E3,2.9456313E3,1.6116256E3,2.2381725E4,1.8716201E4,1.9067303E4,2.8852083E3,3.1826646E3,2.3567271E4,8.403703E3,1.8051777E3,5.146735E3,7.638734E3,3.4021008E1,2.4233445E3,1.8854228E2,1.288413E3,5.771382E4,1.0332874E3,2.5587384E2,2.119397E2,1.4721545E3,2.4042885E1,1.0958097E3,1.8498217E3,1.1732441E2,1.4943011E3,1.9377535E4,3.004189E3,1.386173E4,4.854471E3,5.341074E3,1.3726228E4,5.997567E2,2.2854517E3,3.2168518E1,3.1504958E3,2.009176E4,3.4755125E3,1.8747626E2,8.216228E3,1.2657327E3,5.39445E2,3.5713947E2,4.789595E3,3.598835E3,4.039899E3,2.4001895E3,2.3155231E1,2.0595064E1,1.6794722E2,1.2755825E3,1.2830403E1,8.1759265E2,5.6896227E4,9.867417E2,4.6545647E1,2.0174356E2,1.0196145E1,1.5051018E2,1.3216443E3,9.3868695E2,1.5712279E2,9.810655E1,1.9217855E1,7.324557E2,1.864508E4,3.694295E2,2.6347595E3,2.0781614E3,1.1783569E4,4.361225E3,4.932463E2,2.6032925E3,2.7377817E3,2.2708105E3,1.1455418E4,9.828288E1,5.0147385E2,2.237421E3,4.803079E1,2.6745542E3,4.759417E2,3.5293105E3,1.656245E4,2.4137644E3,1.061748E3,2.0199242E1,1.6727702E2,1.7634663E2,8.0398804E3,8.351938E2,4.3053888E2,2.4723954E0,5.369726E2],"tree_param":{"num_deleted":"0","num_feature":"23","num_nodes":"115","size_leaf_vector":"1"}},{"base_weights":[-2.1049737E-3,-8.153554E-1,6.580952E-1,-1.0230448E0,1.5341238E0,2.381465E-1,1.1981232E0,1.3552083E-1,-1.2992479E0,1.6860306E-1,1.6029865E0,9.98338E-1,-4.2752215E-1,9.304202E-1,1.5188715E0,9.231704E-1,-7.7681214E-1,-1.4002287E0,7.738345E-1,-1.2505117E-1,1.1970236E-1,-4.894833E-2,1.6333569E0,1.3186591E0,2.9132113E-1,-8.3360696E-1,1.1645814E0,7.491469E-1,1.6379151E0,1.5459312E0,-1.1963723E-1,1.8085967E-1,1.3833643E0,-1.4216571E0,8.44081E-1,7.733159E-2,-1.5040641E0,1.7218859E0,-1.1621995E0,-1.2883757E-1,1.1530189E-1,1.3832959E0,1.715567E0,4.6292832E-1,1.4194531E0,-8.100877E-2,1.1736459E0,3.8624942E-1,-1.304362E0,-1.4393903E0,1.5048338E0,1.2004324E0,3.4965664E-1,1.6567119E0,-1.4371958E-1,1.3084441E0,1.6566603E0,8.3850145E-1,-1.3682435E-1,7.1542725E-2,-5.9324138E-2,-1.2814333E-1,9.856798E-2,-1.11999296E-1,9.688091E-2,-1.2503237E-1,9.395425E-2,7.231425E-2,-1.0625943E-1,-1.11526676E-1,-5.921E-2,1.3897377E-1,1.0908969E-1,-1.0781468E-1,7.114495E-2,1.0997139E-1,-4.9269505E-2,1.2356359E-1,1.15863E-1,5.368221E-2,-1.06993444E-1,-1.00213036E-1,1.0058542E-1,-1.2492922E-1,4.2714626E-2,9.7492E-2,-4.1283064E-2,1.0821157E-1,-7.898501E-3,6.650235E-2,-9.70841E-2,-1.14810586E-1,4.6879493E-2,-3.630356E-2,1.0949727E-1,8.9208424E-2,-1.0649502E-1,-7.029393E-2,6.400902E-2,7.957909E-2,1.19489774E-1,6.9161996E-2,1.11103244E-1,1.043222E-1,1.1722461E-1,-1.3587454E-1,1.0925812E-1],"categories":[],"categories_nodes":[],"categories_segments":[],"categories_sizes":[],"default_left":[0,0,0,0,0,0,0,0,0,0,0,0,0,0,0,0,0,0,0,0,0,0,0,0,0,0,0,0,0,0,0,0,0,0,0,0,0,0,0,0,0,0,0,0,0,0,0,0,0,0,0,0,0,0,0,0,0,0,0,0,0,0,0,0,0,0,0,0,0,0,0,0,0,0,0,0,0,0,0,0,0,0,0,0,0,0,0,0,0,0,0,0,0,0,0,0,0,0,0,0,0,0,0,0,0,0,0],"id":3,"left_children":[1,3,5,7,9,11,13,15,17,19,21,23,25,27,29,31,33,35,37,-1,-1,39,41,43,45,47,49,51,53,55,57,59,61,63,65,67,69,71,73,-1,-1,75,77,79,81,83,85,87,89,91,93,95,97,99,-1,101,103,105,-1,-1,-1,-1,-1,-1,-1,-1,-1,-1,-1,-1,-1,-1,-1,-1,-1,-1,-1,-1,-1,-1,-1,-1,-1,-1,-1,-1,-1,-1,-1,-1,-1,-1,-1,-1,-1,-1,-1,-1,-1,-1,-1,-1,-1,-1,-1,-1,-1],"loss_changes":[9.6261875E4,3.9201047E4,2.244141E4,2.3619055E4,6.13292E2,2.8170605E4,3.7155977E3,1.0211776E4,1.2477961E4,9.504316E2,3.117129E2,5.8854746E3,1.9189994E4,3.0252324E3,8.732656E2,2.6049795E3,6.8832603E3,8.719516E3,5.084332E3,0E0,0E0,3.4673627E2,1.230166E2,1.5420254E3,2.6626096E3,1.3580951E4,5.346733E3,3.3865586E3,3.3727637E2,5.072539E2,5.6575195E2,2.5265156E3,3.7704785E2,2.3591943E3,2.4584316E3,5.692656E3,3.115414E3,7.696973E1,7.5163025E2,0E0,0E0,5.9441284E2,1.08203125E1,1.1428978E3,7.9953125E2,6.714106E3,9.300864E2,3.8117688E3,3.1770742E3,2.9649084E2,6.42251E2,1.7779961E3,7.6214873E3,1.23234375E2,0E0,5.490381E2,3.7E1,4.2764655E2,0E0,0E0,0E0,0E0,0E0,0E0,0E0,0E0,0E0,0E0,0E0,0E0,0E0,0E0,0E0,0E0,0E0,0E0,0E0,0E0,0E0,0E0,0E0,0E0,0E0,0E0,0E0,0E0,0E0,0E0,0E0,0E0,0E0,0E0,0E0,0E0,0E0,0E0,0E0,0E0,0E0,0E0,0E0,0E0,0E0,0E0,0E0,0E0,0E0],"parents":[2147483647,0,0,1,1,2,2,3,3,4,4,5,5,6,6,7,7,8,8,9,9,10,10,11,11,12,12,13,13,14,14,15,15,16,16,17,17,18,18,21,21,22,22,23,23,24,24,25,25,26,26,27,27,28,28,29,29,30,30,31,31,32,32,33,33,34,34,35,35,36,36,37,37,38,38,41,41,42,42,43,43,44,44,45,45,46,46,47,47,48,48,49,49,50,50,51,51,52,52,53,53,55,55,56,56,57,57],"right_children":[2,4,6,8,10,12,14,16,18,20,22,24,26,28,30,32,34,36,38,-1,-1,40,42,44,46,48,50,52,54,56,58,60,62,64,66,68,70,72,74,-1,-1,76,78,80,82,84,86,88,90,92,94,96,98,100,-1,102,104,106,-1,-1,-1,-1,-1,-1,-1,-1,-1,-1,-1,-1,-1,-1,-1,-1,-1,-1,-1,-1,-1,-1,-1,-1,-1,-1,-1,-1,-1,-1,-1,-1,-1,-1,-1,-1,-1,-1,-1,-1,-1,-1,-1,-1,-1,-1,-1,-1,-1],"split_conditions":[7.629718E2,5.854118E-3,1.3764017E-5,9.1723554E-2,1.3942231E0,3.4649915E3,1.9455914E-5,6.0479546E-1,2.371757E0,6.9223785E-1,8.35978E-4,3.4368732E-6,4.4693675E-6,6.7436755E-1,1.1809553E4,1.210887E-5,6.7375076E-6,2.0749797E-1,2.911863E-3,-1.2505117E-1,1.1970236E-1,5.4945797E-1,1.5935516E0,5.3815687E-1,4.4693675E-6,3.2693067E-6,4.987267E0,2.212902E-3,4.733621E-6,6.568304E-2,4.3414677E-3,6.543782E-3,1.7457734E-1,2.3174646E0,2.3746532E-3,1.631017E-2,3.327464E-1,1.5296671E-2,1.5053041E-5,-1.2883757E-1,1.1530189E-1,3.130206E-1,1.581994E-2,7.536408E-3,1.0673935E-3,1.9802078E1,5.7749444E-1,2.762193E-6,1.11026995E-1,2.0912907E0,3.99034E-3,1.2841771E4,2.9281622E-3,4.188055E-6,-1.4371958E-1,-9.7168636E-1,2.0587027E-5,1.7886753E0,-1.3682435E-1,7.1542725E-2,-5.9324138E-2,-1.2814333E-1,9.856798E-2,-1.11999296E-1,9.688091E-2,-1.2503237E-1,9.395425E-2,7.231425E-2,-1.0625943E-1,-1.11526676E-1,-5.921E-2,1.3897377E-1,1.0908969E-1,-1.0781468E-1,7.114495E-2,1.0997139E-1,-4.9269505E-2,1.2356359E-1,1.15863E-1,5.368221E-2,-1.06993444E-1,-1.00213036E-1,1.0058542E-1,-1.2492922E-1,4.2714626E-2,9.7492E-2,-4.1283064E-2,1.0821157E-1,-7.898501E-3,6.650235E-2,-9.70841E-2,-1.14810586E-1,4.6879493E-2,-3.630356E-2,1.0949727E-1,8.9208424E-2,-1.0649502E-1,-7.029393E-2,6.400902E-2,7.957909E-2,1.19489774E-1,6.9161996E-2,1.11103244E-1,1.043222E-1,1.1722461E-1,-1.3587454E-1,1.0925812E-1],"split_indices":[5,10,6,15,0,5,6,16,1,1,12,13,13,15,5,6,13,16,12,0,0,1,0,1,13,13,4,12,13,10,12,22,1,8,12,22,21,22,6,0,0,16,22,22,12,4,16,13,20,0,22,5,12,13,0,19,6,0,0,0,0,0,0,0,0,0,0,0,0,0,0,0,0,0,0,0,0,0,0,0,0,0,0,0,0,0,0,0,0,0,0,0,0,0,0,0,0,0,0,0,0,0,0,0,0,0,0],"split_type":[0,0,0,0,0,0,0,0,0,0,0,0,0,0,0,0,0,0,0,0,0,0,0,0,0,0,0,0,0,0,0,0,0,0,0,0,0,0,0,0,0,0,0,0,0,0,0,0,0,0,0,0,0,0,0,0,0,0,0,0,0,0,0,0,0,0,0,0,0,0,0,0,0,0,0,0,0,0,0,0,0,0,0,0,0,0,0,0,0,0,0,0,0,0,0,0,0,0,0,0,0,0,0,0,0,0,0],"sum_hessian":[1.7928731E5,8.033208E4,9.895523E4,7.380815E4,6.5239307E3,5.5667367E4,4.328786E4,1.4208685E4,5.9599465E4,3.1337006E2,6.2105605E3,2.5988305E4,2.967906E4,2.3597125E4,1.9690734E4,7.6253965E3,6.583288E3,5.6831496E4,2.7679688E3,1.3807982E2,1.7529024E2,1.1210739E2,6.0984536E3,1.7884629E4,8.103676E3,2.364787E4,6.031192E3,1.878589E4,4.811235E3,1.9370885E4,3.1985034E2,2.9187432E3,4.7066533E3,4.709726E3,1.873562E3,3.7316023E3,5.3099895E4,1.8581613E3,9.098075E2,5.447791E1,5.762948E1,1.5132814E3,4.585172E3,1.8851876E3,1.5999441E4,5.6994766E3,2.4041992E3,6.5848604E3,1.706301E4,6.966276E2,5.334564E3,8.820161E3,9.96573E3,4.787406E3,2.3828941E1,6.1638105E3,1.3207073E4,2.1048775E2,1.09362595E2,1.6054802E3,1.3132628E3,3.5409546E1,4.6712437E3,4.428663E3,2.8106317E2,2.9790994E2,1.575652E3,2.333811E3,1.3977911E3,4.6762996E4,6.336897E3,7.072045E2,1.1509568E3,7.7553436E2,1.3427315E2,1.388631E3,1.2465029E2,2.5012073E3,2.0839648E3,1.636078E3,2.4910963E2,9.701047E1,1.5902431E4,1.644522E3,4.0549546E3,2.1386848E3,2.6551434E2,1.9806649E3,4.6041953E3,6.023855E2,1.6460623E4,6.362834E2,6.0344254E1,1.5194583E2,5.182618E3,8.587305E3,2.3285635E2,2.9332563E3,7.032474E3,4.2430933E2,4.3630967E3,2.8696785E3,3.294132E3,1.296292E3,1.1910781E4,4.3068863E1,1.6741888E2],"tree_param":{"num_deleted":"0","num_feature":"23","num_nodes":"107","size_leaf_vector":"1"}},{"base_weights":[1.0805331E-2,-8.047111E-1,6.7677647E-1,3.252661E-1,-1.2212255E0,2.8095695E-1,1.2269503E0,-3.286934E-1,1.0853878E0,-1.3672963E0,1.0626475E0,9.425942E-1,-1.6044678E-1,1.3943732E0,7.228812E-1,-7.1543545E-1,5.363865E-1,1.3314428E0,-1.0149966E-3,-1.4281827E0,1.0354707E0,1.7096143E0,-2.137006E-1,-2.13803E-1,1.1863077E0,-6.435954E-1,1.1697143E0,1.1839384E0,1.5777671E0,1.1586688E0,-1.7096639E-1,-1.4214052E0,3.0313347E-2,-1.4390553E0,8.922857E-1,7.260991E-1,1.550084E0,-9.994409E-1,1.2694228E0,-1.4673054E0,1.4385229E0,-9.1723275E-1,1.3073832E0,1.992604E0,1.6191304E0,-1.3922603E0,1.5038364E0,-1.3636315E0,8.327905E-1,1.5359544E0,8.509488E-1,5.469109E-1,-1.2187821E0,-5.690542E-1,1.5025604E0,3.5858837E-1,1.2660276E0,1.6205069E0,1.3353148E0,5.3098845E-1,1.6305976E0,-9.7610974E-1,1.4660031E0,-1.1208321E-1,3.7622474E-2,7.239416E-2,-6.3307285E-2,-1.18571036E-1,9.133703E-2,9.1450974E-2,-7.620272E-2,-2.1667732E-2,1.0896268E-1,1.1375199E-1,2.382691E-2,1.2091227E-1,-9.467131E-2,-1.3239801E-1,1.0875349E-1,8.603895E-2,-1.0537647E-1,1.3005604E-1,-1.1893331E-1,-1.2381196E-1,1.0295052E-1,4.558228E-2,1.1099603E-1,1.412938E-1,-1.06465675E-1,1.14633515E-1,-1.1934869E-1,1.2216235E-1,-1.1222021E-1,1.1538966E-1,-1.1581428E-1,1.0891557E-1,-1.14888944E-1,-4.274003E-3,9.903454E-2,-3.89708E-2,1.0900823E-1,1.15100324E-1,2.3066746E-2,-9.898991E-3,9.851932E-2,1.2453891E-2,-9.54701E-2,1.1263327E-1,-9.058585E-2,1.1501725E-1,6.371951E-2,-7.7903275E-3,1.2059772E-1,7.256091E-2,1.1032569E-1,1.0713629E-1,1.16727285E-1,5.75475E-2,1.0461974E-1,7.974686E-2,-5.746797E-2,9.436937E-2,1.2003264E-1,9.47848E-2,-1.0208542E-1,1.0963715E-1,-4.8329335E-2],"categories":[],"categories_nodes":[],"categories_segments":[],"categories_sizes":[],"default_left":[0,0,0,0,0,0,0,0,0,0,0,0,0,0,0,0,0,0,0,0,0,0,0,0,0,0,0,0,0,0,0,0,0,0,0,0,0,0,0,0,0,0,0,0,0,0,0,0,0,0,0,0,0,0,0,0,0,0,0,0,0,0,0,0,0,0,0,0,0,0,0,0,0,0,0,0,0,0,0,0,0,0,0,0,0,0,0,0,0,0,0,0,0,0,0,0,0,0,0,0,0,0,0,0,0,0,0,0,0,0,0,0,0,0,0,0,0,0,0,0,0,0,0,0,0,0,0],"id":4,"left_children":[1,3,5,7,9,11,13,15,17,19,21,23,25,27,29,31,33,35,37,39,41,43,45,47,49,51,53,55,57,59,61,63,65,67,69,71,73,75,77,79,81,83,85,87,89,91,93,95,97,99,101,103,105,107,109,111,113,115,117,119,121,123,125,-1,-1,-1,-1,-1,-1,-1,-1,-1,-1,-1,-1,-1,-1,-1,-1,-1,-1,-1,-1,-1,-1,-1,-1,-1,-1,-1,-1,-1,-1,-1,-1,-1,-1,-1,-1,-1,-1,-1,-1,-1,-1,-1,-1,-1,-1,-1,-1,-1,-1,-1,-1,-1,-1,-1,-1,-1,-1,-1,-1,-1,-1,-1,-1],"loss_changes":[9.83235E4,3.8302824E4,2.1701719E4,1.0896146E4,1.9838898E4,1.69272E4,3.517961E3,3.9425908E3,2.7097822E3,8.177883E3,2.9525066E3,6.536961E3,2.2344162E4,1.206082E3,4.0507026E3,4.2872744E3,2.5610496E3,1.0927871E3,2.376965E3,6.115422E3,7.348983E2,5.7526855E1,2.4382E3,4.8606396E3,2.2449531E3,1.746484E4,5.362216E3,9.87334E2,1.7110938E2,2.069872E3,4.494448E3,1.4740752E3,3.7177314E3,3.9109436E2,2.5329382E3,1.8884159E3,5.4985547E2,1.0123506E3,7.437085E2,5.5224453E3,9.6957434E2,3.472295E2,2.2052979E2,5.494214E1,1.1362402E2,4.7537085E2,2.2659436E2,1.5625657E3,1.1001141E3,4.189707E2,4.0452812E3,4.9215664E3,3.484666E3,2.3537146E3,6.4575977E2,8.4653015E2,9.416914E2,5.7585938E1,2.0404541E2,2.469305E3,9.252832E1,2.5704639E3,2.4411646E2,0E0,0E0,0E0,0E0,0E0,0E0,0E0,0E0,0E0,0E0,0E0,0E0,0E0,0E0,0E0,0E0,0E0,0E0,0E0,0E0,0E0,0E0,0E0,0E0,0E0,0E0,0E0,0E0,0E0,0E0,0E0,0E0,0E0,0E0,0E0,0E0,0E0,0E0,0E0,0E0,0E0,0E0,0E0,0E0,0E0,0E0,0E0,0E0,0E0,0E0,0E0,0E0,0E0,0E0,0E0,0E0,0E0,0E0,0E0,0E0,0E0,0E0,0E0,0E0],"parents":[2147483647,0,0,1,1,2,2,3,3,4,4,5,5,6,6,7,7,8,8,9,9,10,10,11,11,12,12,13,13,14,14,15,15,16,16,17,17,18,18,19,19,20,20,21,21,22,22,23,23,24,24,25,25,26,26,27,27,28,28,29,29,30,30,31,31,32,32,33,33,34,34,35,35,36,36,37,37,38,38,39,39,40,40,41,41,42,42,43,43,44,44,45,45,46,46,47,47,48,48,49,49,50,50,51,51,52,52,53,53,54,54,55,55,56,56,57,57,58,58,59,59,60,60,61,61,62,62],"right_children":[2,4,6,8,10,12,14,16,18,20,22,24,26,28,30,32,34,36,38,40,42,44,46,48,50,52,54,56,58,60,62,64,66,68,70,72,74,76,78,80,82,84,86,88,90,92,94,96,98,100,102,104,106,108,110,112,114,116,118,120,122,124,126,-1,-1,-1,-1,-1,-1,-1,-1,-1,-1,-1,-1,-1,-1,-1,-1,-1,-1,-1,-1,-1,-1,-1,-1,-1,-1,-1,-1,-1,-1,-1,-1,-1,-1,-1,-1,-1,-1,-1,-1,-1,-1,-1,-1,-1,-1,-1,-1,-1,-1,-1,-1,-1,-1,-1,-1,-1,-1,-1,-1,-1,-1,-1,-1],"split_conditions":[8.0064764E2,9.42516E-3,2.2761242E0,1.8363309E0,2.371757E0,3.4649915E3,6.698495E1,5.2436562E-6,6.196582E-1,2.709045E0,2.911863E-3,1.8249043E1,4.4693675E-6,2.709045E0,3.445196E-6,6.1929095E-1,1.0422955E2,6.841381E-1,6.4298365E-6,4.6892574E1,-3.7487876E-1,7.536408E-3,3.0007956E0,4.4621293E-6,2.2899233E3,1.4984807E0,4.987267E0,6.2961526E0,7.8063145E3,8.745494E-1,6.2415022E-2,2.8439774E-3,3.922832E-6,2.0965023E0,2.7678506E0,1.7528139E0,1.9909955E0,-1.5153528E0,2.4044667E-3,6.303689E-1,3.236074E-1,3.172173E-1,2.89285E0,3.2221313E0,2.8568E-3,1.3901836E0,5.8363754E-1,3.0710753E-6,5.3979646E-2,4.62739E-1,6.0101884E-6,1.4632215E-1,-1.0751519E0,8.078991E-2,1.7926733E0,1.5077531E0,4.475948E-6,2.997838E0,6.082609E-1,3.1432244E-6,1.5263633E-3,1.1140607E-1,2.1846232E0,-1.1208321E-1,3.7622474E-2,7.239416E-2,-6.3307285E-2,-1.18571036E-1,9.133703E-2,9.1450974E-2,-7.620272E-2,-2.1667732E-2,1.0896268E-1,1.1375199E-1,2.382691E-2,1.2091227E-1,-9.467131E-2,-1.3239801E-1,1.0875349E-1,8.603895E-2,-1.0537647E-1,1.3005604E-1,-1.1893331E-1,-1.2381196E-1,1.0295052E-1,4.558228E-2,1.1099603E-1,1.412938E-1,-1.06465675E-1,1.14633515E-1,-1.1934869E-1,1.2216235E-1,-1.1222021E-1,1.1538966E-1,-1.1581428E-1,1.0891557E-1,-1.14888944E-1,-4.274003E-3,9.903454E-2,-3.89708E-2,1.0900823E-1,1.15100324E-1,2.3066746E-2,-9.898991E-3,9.851932E-2,1.2453891E-2,-9.54701E-2,1.1263327E-1,-9.058585E-2,1.1501725E-1,6.371951E-2,-7.7903275E-3,1.2059772E-1,7.256091E-2,1.1032569E-1,1.0713629E-1,1.16727285E-1,5.75475E-2,1.0461974E-1,7.974686E-2,-5.746797E-2,9.436937E-2,1.2003264E-1,9.47848E-2,-1.0208542E-1,1.0963715E-1,-4.8329335E-2],"split_indices":[5,17,18,18,1,5,4,13,16,18,12,4,13,18,13,1,9,1,13,11,7,22,1,13,5,0,4,4,5,1,22,12,13,0,11,7,0,19,12,18,16,3,18,7,12,11,19,13,22,1,6,21,19,15,1,16,13,18,7,13,12,15,0,0,0,0,0,0,0,0,0,0,0,0,0,0,0,0,0,0,0,0,0,0,0,0,0,0,0,0,0,0,0,0,0,0,0,0,0,0,0,0,0,0,0,0,0,0,0,0,0,0,0,0,0,0,0,0,0,0,0,0,0,0,0,0,0],"split_type":[0,0,0,0,0,0,0,0,0,0,0,0,0,0,0,0,0,0,0,0,0,0,0,0,0,0,0,0,0,0,0,0,0,0,0,0,0,0,0,0,0,0,0,0,0,0,0,0,0,0,0,0,0,0,0,0,0,0,0,0,0,0,0,0,0,0,0,0,0,0,0,0,0,0,0,0,0,0,0,0,0,0,0,0,0,0,0,0,0,0,0,0,0,0,0,0,0,0,0,0,0,0,0,0,0,0,0,0,0,0,0,0,0,0,0,0,0,0,0,0,0,0,0,0,0,0,0],"sum_hessian":[1.8103578E5,8.138068E4,9.96551E4,2.1918201E4,5.946248E4,5.7958605E4,4.1696496E4,1.1782161E4,1.013604E4,5.58884E4,3.5740823E3,2.3192832E4,3.4765773E4,3.129899E4,1.0397506E4,8.1422603E3,3.639901E3,8.264109E3,1.8719308E3,5.4507574E4,1.3808234E3,2.3716033E3,1.202479E3,4.0371348E3,1.9155697E4,2.5502959E4,9.262813E3,1.4578443E4,1.6720547E4,6.989527E3,3.4079788E3,4.1822188E3,3.960041E3,5.551975E2,3.0847031E3,2.1939954E3,6.0701143E3,1.0482968E3,8.23634E2,5.377419E4,7.3338184E2,1.6848653E2,1.2123369E3,5.694909E2,1.8021123E3,7.1324536E2,4.892337E2,1.9235475E3,2.1135874E3,9.376318E3,9.779378E3,8.30778E3,1.719518E4,1.4881409E3,7.7746724E3,1.319288E3,1.3259155E4,1.4209923E4,2.5106238E3,3.0006685E3,3.9888584E3,2.2846682E3,1.1233103E3,3.8308125E3,3.514066E2,1.9093047E3,2.0507363E3,5.0836917E2,4.6828354E1,2.5515725E3,5.3313074E2,9.7669464E2,1.2173008E3,5.715668E3,3.544461E2,1.1971078E2,9.28586E2,6.747953E1,7.561544E2,7.482666E2,5.3025926E4,6.472654E2,8.611651E1,1.2439014E2,4.409639E1,3.620099E2,8.5032697E2,5.6574945E2,3.7414434E0,1.7926476E3,9.46472E0,4.4463703E1,6.687817E2,4.682743E2,2.0959396E1,1.6663727E2,1.7569103E3,8.338355E2,1.2797518E3,9.424685E1,9.282071E3,3.8775574E3,5.9018203E3,4.61614E3,3.6916404E3,1.6179988E3,1.557718E4,3.7134467E2,1.1167963E3,6.282189E3,1.4924833E3,9.81985E2,3.3730298E2,7.6226514E3,5.6365044E3,4.8886187E3,9.321304E3,5.960282E2,1.9145956E3,2.0696716E3,9.309969E2,9.195186E2,3.0693398E3,3.9144678E2,1.8932216E3,1.073674E3,4.9636368E1],"tree_param":{"num_deleted":"0","num_feature":"23","num_nodes":"127","size_leaf_vector":"1"}},{"base_weights":[-4.832253E-3,-7.406934E-1,5.889685E-1,-9.190173E-1,1.404843E0,1.0566703E0,1.427047E-1,1.6216217E-1,-1.1805227E0,1.240732E-1,1.4734058E0,-2.9634976E-1,1.1460726E0,-2.9027006E-1,1.166708E0,-1.148596E-1,1.5309869E0,1.4608035E0,-1.2603444E0,-1.1835522E-1,1.1048778E-1,5.7696034E-3,1.5025603E0,1.6601707E0,-9.4911414E-1,1.1989107E0,-9.773338E-1,1.3531672E0,-5.980736E-1,-4.098066E-1,1.3271909E0,-1.2372411E0,6.5286076E-1,-1.2076947E-1,1.577024E0,1.7477937E0,-8.244721E-1,-1.3420154E0,6.630222E-1,-1.1769988E-1,1.1257285E-1,1.2585663E0,1.5987272E0,1.686587E0,-1.1862525E-1,7.0936996E-1,-1.448108E0,1.5657749E0,1.0691409E0,-1.5792451E0,1.1919051E0,1.4715753E0,7.371088E-1,-7.5281495E-1,1.5368109E0,6.9098026E-1,-1.2789927E0,-1.0060375E0,1.3860586E0,1.12714946E-1,-1.03970766E-1,9.2974916E-2,9.440079E-4,1.1213404E-1,-1.3338824E-1,-1.08856864E-1,1.2622947E-1,-1.1156802E-1,8.734639E-2,-9.728079E-2,3.4494416E-3,1.069751E-1,-9.6350245E-2,1.0174377E-1,-8.489677E-2,1.1465828E-1,1.0868396E-1,1.1910536E-1,-1.1704761E-1,9.7119376E-2,-4.106225E-2,4.2102292E-2,-1.17501594E-1,1.1197852E-1,9.822704E-2,6.1857775E-2,1.032469E-1,-1.5634825E-2,-1.23270676E-1,-1.2531534E-1,9.7180955E-2,-1.1799072E-1,1.03570275E-1,7.7762276E-2,-5.0285805E-2,3.2381687E-2,-7.617639E-2,1.1380405E-1,-1.2606382E-1,8.768119E-2,-6.177808E-2,3.2630235E-2,-1.1514881E-1,9.559974E-2,-1.29703E-1,9.767713E-2,-1.2362655E-1],"categories":[],"categories_nodes":[],"categories_segments":[],"categories_sizes":[],"default_left":[0,0,0,0,0,0,0,0,0,0,0,0,0,0,0,0,0,0,0,0,0,0,0,0,0,0,0,0,0,0,0,0,0,0,0,0,0,0,0,0,0,0,0,0,0,0,0,0,0,0,0,0,0,0,0,0,0,0,0,0,0,0,0,0,0,0,0,0,0,0,0,0,0,0,0,0,0,0,0,0,0,0,0,0,0,0,0,0,0,0,0,0,0,0,0,0,0,0,0,0,0,0,0,0,0,0,0],"id":5,"left_children":[1,3,5,7,9,11,13,15,17,19,21,23,25,27,29,31,33,35,37,-1,-1,39,41,43,45,47,49,51,53,55,57,59,61,-1,63,65,67,69,71,-1,-1,73,75,77,-1,79,81,83,85,87,89,91,93,95,97,99,101,103,105,-1,-1,-1,-1,-1,-1,-1,-1,-1,-1,-1,-1,-1,-1,-1,-1,-1,-1,-1,-1,-1,-1,-1,-1,-1,-1,-1,-1,-1,-1,-1,-1,-1,-1,-1,-1,-1,-1,-1,-1,-1,-1,-1,-1,-1,-1,-1,-1],"loss_changes":[7.581357E4,2.9646555E4,2.0041145E4,2.0226559E4,5.219707E2,5.671578E3,2.178638E4,5.283839E3,1.2147102E4,8.030177E2,2.4148633E2,3.7138555E3,4.935414E3,1.7471078E4,3.6950488E3,9.987239E3,3.543125E2,1.1099956E3,8.784398E3,0E0,0E0,3.0263113E2,1.2783789E2,6.733325E1,1.8052744E3,2.0412305E3,1.3967831E3,3.9634766E2,9.610778E3,1.2924629E3,1.8218145E3,3.327624E3,2.9719858E3,0E0,2.0357031E2,2.7805762E2,3.03734E2,3.5605469E3,4.0222192E3,0E0,0E0,7.576758E2,4.631836E0,3.9039062E1,0E0,4.44498E2,7.928677E2,5.9554688E1,2.3846133E3,2.0581543E2,1.387225E2,1.17893555E2,4.797383E2,1.1058005E4,5.867637E2,5.280168E2,4.8276978E2,6.5880786E2,3.8262305E2,0E0,0E0,0E0,0E0,0E0,0E0,0E0,0E0,0E0,0E0,0E0,0E0,0E0,0E0,0E0,0E0,0E0,0E0,0E0,0E0,0E0,0E0,0E0,0E0,0E0,0E0,0E0,0E0,0E0,0E0,0E0,0E0,0E0,0E0,0E0,0E0,0E0,0E0,0E0,0E0,0E0,0E0,0E0,0E0,0E0,0E0,0E0,0E0],"parents":[2147483647,0,0,1,1,2,2,3,3,4,4,5,5,6,6,7,7,8,8,9,9,10,10,11,11,12,12,13,13,14,14,15,15,16,16,17,17,18,18,21,21,22,22,23,23,24,24,25,25,26,26,27,27,28,28,29,29,30,30,31,31,32,32,34,34,35,35,36,36,37,37,38,38,41,41,42,42,43,43,45,45,46,46,47,47,48,48,49,49,50,50,51,51,52,52,53,53,54,54,55,55,56,56,57,57,58,58],"right_children":[2,4,6,8,10,12,14,16,18,20,22,24,26,28,30,32,34,36,38,-1,-1,40,42,44,46,48,50,52,54,56,58,60,62,-1,64,66,68,70,72,-1,-1,74,76,78,-1,80,82,84,86,88,90,92,94,96,98,100,102,104,106,-1,-1,-1,-1,-1,-1,-1,-1,-1,-1,-1,-1,-1,-1,-1,-1,-1,-1,-1,-1,-1,-1,-1,-1,-1,-1,-1,-1,-1,-1,-1,-1,-1,-1,-1,-1,-1,-1,-1,-1,-1,-1,-1,-1,-1,-1,-1,-1],"split_conditions":[7.629718E2,5.854118E-3,2.1524434E0,7.386499E-3,1.3942231E0,6.033537E0,4.433917E-6,2.3174646E0,-1.7878041E0,6.9223785E-1,8.35978E-4,2.8843326E-2,1.1209066E4,-1.8092033E0,4.987267E0,1.5930192E0,4.4653746E-3,1.9030591E-2,2.371757E0,-1.1835522E-1,1.1048778E-1,5.4945797E-1,1.5946925E0,4.457074E-3,2.1484043E-3,-1.8051975E0,8.7972695E-1,-1.8153843E0,2.3174646E0,9.911176E-2,1.0676608E3,-1.8092033E0,-1.335679E0,-1.2076947E-1,8.343204E-1,1.4931908E0,1.8011423E0,2.4973767E0,2.911863E-3,-1.1769988E-1,1.1257285E-1,2.4218801E-2,4.393763E-1,1.7492675E0,-1.1862525E-1,-1.1027759E0,1.3929323E0,-1.8153843E0,3.3284198E-3,1.2879932E1,4.1987073E-6,-3.346954E-2,9.6308464E1,3.174714E-6,1.0584037E0,4.457074E-3,-4.4504517E-1,-1.5469004E0,1.4811981E4,1.12714946E-1,-1.03970766E-1,9.2974916E-2,9.440079E-4,1.1213404E-1,-1.3338824E-1,-1.08856864E-1,1.2622947E-1,-1.1156802E-1,8.734639E-2,-9.728079E-2,3.4494416E-3,1.069751E-1,-9.6350245E-2,1.0174377E-1,-8.489677E-2,1.1465828E-1,1.0868396E-1,1.1910536E-1,-1.1704761E-1,9.7119376E-2,-4.106225E-2,4.2102292E-2,-1.17501594E-1,1.1197852E-1,9.822704E-2,6.1857775E-2,1.032469E-1,-1.5634825E-2,-1.23270676E-1,-1.2531534E-1,9.7180955E-2,-1.1799072E-1,1.03570275E-1,7.7762276E-2,-5.0285805E-2,3.2381687E-2,-7.617639E-2,1.1380405E-1,-1.2606382E-1,8.768119E-2,-6.177808E-2,3.2630235E-2,-1.1514881E-1,9.559974E-2,-1.29703E-1,9.767713E-2,-1.2362655E-1],"split_indices":[5,10,2,17,0,4,13,8,14,1,12,20,5,14,4,0,17,17,1,0,0,1,0,12,12,14,7,14,8,20,5,14,14,0,1,0,0,18,12,0,0,17,8,1,0,19,0,14,12,4,13,16,4,13,1,12,7,14,5,0,0,0,0,0,0,0,0,0,0,0,0,0,0,0,0,0,0,0,0,0,0,0,0,0,0,0,0,0,0,0,0,0,0,0,0,0,0,0,0,0,0,0,0,0,0,0,0],"split_type":[0,0,0,0,0,0,0,0,0,0,0,0,0,0,0,0,0,0,0,0,0,0,0,0,0,0,0,0,0,0,0,0,0,0,0,0,0,0,0,0,0,0,0,0,0,0,0,0,0,0,0,0,0,0,0,0,0,0,0,0,0,0,0,0,0,0,0,0,0,0,0,0,0,0,0,0,0,0,0,0,0,0,0,0,0,0,0,0,0,0,0,0,0,0,0,0,0,0,0,0,0,0,0,0,0,0,0],"sum_hessian":[1.7350234E5,7.748261E4,9.601973E4,7.153743E4,5.9451846E3,4.6883074E4,4.9136656E4,1.3932921E4,5.7604508E4,3.0223175E2,5.6429526E3,2.9056978E3,4.3977375E4,3.4535062E4,1.4601591E4,1.1588554E4,2.3443672E3,1.6892523E3,5.5915254E4,1.3437791E2,1.6785385E2,1.09936745E2,5.5330156E3,7.2653186E2,2.1791658E3,4.291005E4,1.067325E3,5.4472876E3,2.9087777E4,1.3489109E3,1.325268E4,4.7067827E3,6.881771E3,3.217407E1,2.312193E3,1.5009897E3,1.8826256E2,5.3637953E4,2.277302E3,5.3527664E1,5.640908E1,1.5682227E3,3.9647932E3,7.213491E2,5.1827297E0,5.0391245E2,1.6752534E3,1.1209449E4,3.1700602E4,8.357082E2,2.3161682E2,4.5679307E3,8.793571E2,2.7122521E4,1.9652556E3,5.9525323E2,7.5365765E2,3.2574277E2,1.2926937E4,3.7673306E2,4.33005E3,3.346202E3,3.5355688E3,2.2963206E3,1.5872397E1,2.4351645E1,1.4766381E3,1.374599E2,5.080267E1,5.185959E4,1.7783635E3,1.599149E3,6.781531E2,1.4539613E3,1.14261314E2,2.122877E3,1.8419164E3,7.186505E2,2.6986156E0,3.3077914E2,1.731333E2,1.691853E2,1.5060681E3,9.266749E3,1.9427001E3,2.1759588E4,9.941015E3,9.905161E1,7.3665656E2,1.3809696E1,2.1780713E2,1.1015641E1,4.556915E3,6.9986237E2,1.7949474E2,5.8660776E3,2.1256443E4,1.9147346E3,5.052102E1,4.388329E2,1.5642032E2,1.3060844E2,6.2304926E2,8.554638E1,2.401964E2,1.2889348E4,3.7589252E1],"tree_param":{"num_deleted":"0","num_feature":"23","num_nodes":"107","size_leaf_vector":"1"}},{"base_weights":[1.1270946E-2,-6.891785E-1,5.733494E-1,-8.617665E-1,1.3557553E0,1.01611E0,1.4603074E-1,1.5058571E-1,-1.1427315E0,1.5080242E-2,1.4219304E0,1.0641718E0,-9.9985135E-1,1.0458549E0,-2.8417888E-1,-3.1000388E-1,8.240997E-1,1.358314E0,-1.2093831E0,-1.1275855E-1,1.0629528E-1,1.0751712E0,1.5337871E0,1.4794725E0,9.2422247E-1,-1.5167873E0,7.538555E-1,-8.781546E-1,1.1639885E0,1.3014051E0,-5.909688E-1,5.277434E-1,-1.0444021E0,1.355136E-2,1.0666001E0,-1.07240215E-1,1.6550332E0,-1.287238E0,6.1993223E-1,-4.1365615E-1,1.4374394E0,1.5601689E0,1.4627208E0,1.5263878E0,1.297596E0,6.18317E-1,1.2404721E0,-1.7029897E0,-6.4740455E-1,-1.2090509E-1,1.2361606E0,-1.661587E0,1.4323753E0,-9.848542E-1,1.1975671E0,1.4186486E0,7.0430464E-1,-8.791603E-1,3.5531297E-1,-3.0010976E-2,7.617655E-2,1.1141874E-1,-8.7817885E-2,6.38821E-2,-8.311296E-2,2.2724876E-2,1.0012681E-1,1.191861E-1,-1.0701979E-1,-9.698995E-2,-4.4870503E-2,-3.4488928E-2,9.8990686E-2,-9.603915E-2,1.0570097E-1,1.0516359E-1,-1.14868596E-1,1.13156885E-1,1.0569902E-1,6.1556555E-2,1.055874E-1,1.0574641E-1,1.2629066E-1,1.0556498E-1,4.800408E-2,8.434868E-3,6.9811426E-2,9.0250544E-2,2.2848526E-2,-1.1708137E-1,-1.3393807E-1,-1.2018635E-1,7.26471E-2,-1.2160592E-1,9.798151E-2,-1.11746766E-1,-1.2722836E-1,1.1896092E-1,-1.3588619E-1,8.310234E-2,-1.23512685E-1,6.9981836E-2,1.08003385E-1,1.2020166E-1,9.39773E-2,-2.2852644E-2,7.892592E-2,-7.438641E-2,6.317983E-2,-5.450923E-2,5.977181E-2],"categories":[],"categories_nodes":[],"categories_segments":[],"categories_sizes":[],"default_left":[0,0,0,0,0,0,0,0,0,0,0,0,0,0,0,0,0,0,0,0,0,0,0,0,0,0,0,0,0,0,0,0,0,0,0,0,0,0,0,0,0,0,0,0,0,0,0,0,0,0,0,0,0,0,0,0,0,0,0,0,0,0,0,0,0,0,0,0,0,0,0,0,0,0,0,0,0,0,0,0,0,0,0,0,0,0,0,0,0,0,0,0,0,0,0,0,0,0,0,0,0,0,0,0,0,0,0,0,0,0,0],"id":6,"left_children":[1,3,5,7,9,11,13,15,17,19,21,23,25,27,29,31,33,35,37,-1,-1,39,41,43,45,47,49,51,53,55,57,59,61,63,65,-1,67,69,71,73,75,77,79,81,83,85,87,89,91,-1,93,95,97,99,101,103,105,107,109,-1,-1,-1,-1,-1,-1,-1,-1,-1,-1,-1,-1,-1,-1,-1,-1,-1,-1,-1,-1,-1,-1,-1,-1,-1,-1,-1,-1,-1,-1,-1,-1,-1,-1,-1,-1,-1,-1,-1,-1,-1,-1,-1,-1,-1,-1,-1,-1,-1,-1,-1,-1],"loss_changes":[6.748078E4,2.6932148E4,1.7991162E4,2.0015438E4,5.2690625E2,4.526039E3,1.8732998E4,4.742791E3,9.183625E3,6.878208E2,2.1788477E2,2.6498125E3,9.8746606E2,3.5586973E3,1.5926462E4,5.586837E3,1.22044E3,1.2291416E3,7.642E3,0E0,0E0,7.46952E2,5.736328E0,9.610547E1,3.300123E3,1.3497961E2,2.9933173E2,1.64244E3,1.065293E3,3.7059082E2,7.481367E3,2.2746604E3,2.6823813E3,1.5459283E3,1.2895117E3,0E0,1.9936035E2,3.2693203E3,1.9367151E3,5.0275565E2,2.2486328E2,6.338379E0,2.9948975E1,3.7164062E1,3.0337207E2,3.272482E3,7.482031E2,1.223999E0,2.7196094E2,0E0,1.0385089E2,3.9838867E0,2.1048584E2,3.8725238E2,9.9049805E2,9.848535E1,3.8127115E2,6.8762354E3,3.6218813E3,0E0,0E0,0E0,0E0,0E0,0E0,0E0,0E0,0E0,0E0,0E0,0E0,0E0,0E0,0E0,0E0,0E0,0E0,0E0,0E0,0E0,0E0,0E0,0E0,0E0,0E0,0E0,0E0,0E0,0E0,0E0,0E0,0E0,0E0,0E0,0E0,0E0,0E0,0E0,0E0,0E0,0E0,0E0,0E0,0E0,0E0,0E0,0E0,0E0,0E0,0E0,0E0],"parents":[2147483647,0,0,1,1,2,2,3,3,4,4,5,5,6,6,7,7,8,8,9,9,10,10,11,11,12,12,13,13,14,14,15,15,16,16,17,17,18,18,21,21,22,22,23,23,24,24,25,25,26,26,27,27,28,28,29,29,30,30,31,31,32,32,33,33,34,34,36,36,37,37,38,38,39,39,40,40,41,41,42,42,43,43,44,44,45,45,46,46,47,47,48,48,50,50,51,51,52,52,53,53,54,54,55,55,56,56,57,57,58,58],"right_children":[2,4,6,8,10,12,14,16,18,20,22,24,26,28,30,32,34,36,38,-1,-1,40,42,44,46,48,50,52,54,56,58,60,62,64,66,-1,68,70,72,74,76,78,80,82,84,86,88,90,92,-1,94,96,98,100,102,104,106,108,110,-1,-1,-1,-1,-1,-1,-1,-1,-1,-1,-1,-1,-1,-1,-1,-1,-1,-1,-1,-1,-1,-1,-1,-1,-1,-1,-1,-1,-1,-1,-1,-1,-1,-1,-1,-1,-1,-1,-1,-1,-1,-1,-1,-1,-1,-1,-1,-1,-1,-1,-1,-1],"split_conditions":[8.0064764E2,5.854118E-3,2.1524434E0,8.119318E-3,1.3942231E0,1.1809553E4,1.7581086E-1,1.8455324E0,-1.7878041E0,7.008262E-1,1.5935516E0,-1.8020933E0,8.7972695E-1,4.1213502E-6,-1.8092033E0,2.3822202E-1,6.08914E-1,4.7594748E0,2.371757E0,-1.1275855E-1,1.0629528E-1,5.476159E0,1.6306333E-1,-1.8153843E0,2.2110758E0,7.237171E-1,2.1070476E0,6.346332E-2,-5.132812E-1,-1.8153843E0,1.0314795E0,1.7902046E0,-1.7952349E0,2.6931465E-1,2.9341674E-1,-1.07240215E-1,6.393556E-1,3.4267524E-1,4.2206602E-6,1.56028E0,1.6851044E0,2.2761242E0,1.6928321E0,1.8123343E1,3.2861383E-6,1.1849719E0,2.1318188E0,2.2882874E0,1.527775E4,-1.2090509E-1,6.332507E-1,-1.719783E0,-1.2431978E0,2.2788732E0,6.7436755E-1,4.636888E-6,-1.8511501E-1,1.8350802E-5,-1.6936511E0,-3.0010976E-2,7.617655E-2,1.1141874E-1,-8.7817885E-2,6.38821E-2,-8.311296E-2,2.2724876E-2,1.0012681E-1,1.191861E-1,-1.0701979E-1,-9.698995E-2,-4.4870503E-2,-3.4488928E-2,9.8990686E-2,-9.603915E-2,1.0570097E-1,1.0516359E-1,-1.14868596E-1,1.13156885E-1,1.0569902E-1,6.1556555E-2,1.055874E-1,1.0574641E-1,1.2629066E-1,1.0556498E-1,4.800408E-2,8.434868E-3,6.9811426E-2,9.0250544E-2,2.2848526E-2,-1.1708137E-1,-1.3393807E-1,-1.2018635E-1,7.26471E-2,-1.2160592E-1,9.798151E-2,-1.11746766E-1,-1.2722836E-1,1.1896092E-1,-1.3588619E-1,8.310234E-2,-1.23512685E-1,6.9981836E-2,1.08003385E-1,1.2020166E-1,9.39773E-2,-2.2852644E-2,7.892592E-2,-7.438641E-2,6.317983E-2,-5.450923E-2,5.977181E-2],"split_indices":[5,10,2,17,0,5,20,18,14,1,0,14,7,13,14,20,1,11,1,0,0,11,15,14,18,1,18,10,21,14,19,0,14,20,20,0,21,21,13,1,19,18,0,11,13,7,2,18,5,0,1,14,14,2,15,6,21,6,14,0,0,0,0,0,0,0,0,0,0,0,0,0,0,0,0,0,0,0,0,0,0,0,0,0,0,0,0,0,0,0,0,0,0,0,0,0,0,0,0,0,0,0,0,0,0,0,0,0,0,0,0],"split_type":[0,0,0,0,0,0,0,0,0,0,0,0,0,0,0,0,0,0,0,0,0,0,0,0,0,0,0,0,0,0,0,0,0,0,0,0,0,0,0,0,0,0,0,0,0,0,0,0,0,0,0,0,0,0,0,0,0,0,0,0,0,0,0,0,0,0,0,0,0,0,0,0,0,0,0,0,0,0,0,0,0,0,0,0,0,0,0,0,0,0,0,0,0,0,0,0,0,0,0,0,0,0,0,0,0,0,0,0,0,0,0],"sum_hessian":[1.7139622E5,7.630563E4,9.509058E4,7.036736E4,5.938274E3,4.67008E4,4.838978E4,1.528697E4,5.508039E4,2.793809E2,5.658893E3,4.561381E4,1.086991E3,1.5651583E4,3.2738197E4,9.078846E3,6.2081235E3,1.4292567E3,5.3651137E4,1.3418817E2,1.4519272E2,1.3827968E3,4.276096E3,1.1494427E4,3.4119383E4,8.3963025E2,2.4736066E2,9.050382E2,1.4746545E4,5.3069604E3,2.7431238E4,4.2411436E3,4.837702E3,1.4298749E3,4.7782485E3,1.3267896E2,1.2965778E3,5.146126E4,2.1898728E3,2.7059213E2,1.1122046E3,3.1031665E3,1.1729298E3,9.13154E3,2.3628862E3,1.7344832E4,1.677455E4,6.90732E2,1.4889825E2,3.9839153E1,2.075215E2,6.760802E2,2.2895798E2,2.2645406E2,1.4520091E4,4.4347925E3,8.721681E2,2.1027387E4,6.4038516E3,1.567118E3,2.6740256E3,3.566844E2,4.481018E3,8.1783484E2,6.1204E2,1.5726398E3,3.205609E3,1.2779274E3,1.8650373E1,4.46639E4,6.7973623E3,9.122594E2,1.2776134E3,1.8080545E2,8.978668E1,1.0897433E3,2.2461386E1,1.4469506E3,1.656216E3,8.663359E1,1.0862963E3,8.648378E3,4.831624E2,1.7569929E3,6.058933E2,7.497652E3,9.847179E3,1.5923637E4,8.5091394E2,6.1135693E2,7.9375084E1,9.1076645E1,5.7821613E1,1.0319455E1,1.9720206E2,4.8467975E2,1.9140047E2,2.1262231E2,1.633566E1,5.9674854E1,1.6677919E2,9.23419E3,5.2858994E3,8.966531E2,3.5381392E3,2.5392773E2,6.1824036E2,1.9064328E4,1.9630571E3,1.955479E3,4.4483726E3],"tree_param":{"num_deleted":"0","num_feature":"23","num_nodes":"111","size_leaf_vector":"1"}},{"base_weights":[8.997653E-3,-7.9016477E-1,6.5737134E-1,-9.7401166E-1,1.438492E0,2.9805177E-1,1.2300767E0,3.3257782E-2,-1.2878907E0,9.564461E-2,1.5049635E0,9.3842E-1,-1.22563615E-1,1.3952975E0,7.294837E-1,-2.5449914E-1,1.6232514E0,-1.3656919E0,4.291493E-1,-1.1497419E-1,1.1485226E-1,1.165571E0,1.612454E0,-1.5139891E-1,1.1687517E0,1.0752825E0,-7.292445E-1,1.1950576E0,1.5717005E0,1.4714742E0,2.0792858E-1,-1.6641998E0,2.2263071E-1,1.6946399E0,-1.2195845E-1,1.4683169E0,-1.4089359E0,-1.2995414E0,7.2701645E-1,-4.5963E-1,1.5371426E0,1.5585598E0,1.1397793E-1,-1.371575E0,8.7510806E-1,1.5135182E0,8.341393E-1,-4.3719375E-1,1.253515E0,1.6530071E-1,-1.2347226E0,6.2255305E-1,1.3054872E0,1.445645E0,1.6370687E0,1.5725317E0,8.999651E-1,-3.166979E-1,1.4917598E0,-1.192507E-1,1.3737193E-1,-1.6881377E-2,9.519377E-2,-1.2701724E-1,1.21545404E-1,-1.2509502E-1,1.290897E-1,-1.00941256E-1,8.66903E-2,-1.2165885E-1,1.1396352E-1,1.1434112E-1,1.764547E-2,-9.5887534E-2,1.1767992E-1,1.1038834E-1,-1.1900746E-1,1.10370524E-1,-1.2777433E-1,1.0336783E-1,-1.1508045E-1,-1.3766664E-1,7.376634E-2,1.0639113E-1,-1.2439481E-1,1.1147324E-1,2.4354905E-2,-9.170553E-2,1.0893544E-1,-8.517595E-2,9.6457876E-2,3.2672856E-2,-1.0568481E-1,-9.763537E-2,3.5968803E-2,5.855184E-2,-6.844872E-2,8.000561E-2,1.0843742E-1,6.3812435E-2,1.0913344E-1,1.15274355E-1,7.745055E-2,-1.0517855E-1,1.1021854E-1,9.949026E-2,-2.8209608E-2,5.2383404E-2,-6.2870115E-2,1.0637418E-1,-1.4818208E-1],"categories":[],"categories_nodes":[],"categories_segments":[],"categories_sizes":[],"default_left":[0,0,0,0,0,0,0,0,0,0,0,0,0,0,0,0,0,0,0,0,0,0,0,0,0,0,0,0,0,0,0,0,0,0,0,0,0,0,0,0,0,0,0,0,0,0,0,0,0,0,0,0,0,0,0,0,0,0,0,0,0,0,0,0,0,0,0,0,0,0,0,0,0,0,0,0,0,0,0,0,0,0,0,0,0,0,0,0,0,0,0,0,0,0,0,0,0,0,0,0,0,0,0,0,0,0,0,0,0,0,0],"id":7,"left_children":[1,3,5,7,9,11,13,15,17,19,21,23,25,27,29,31,33,35,37,-1,-1,39,41,43,45,47,49,51,53,55,57,59,61,63,-1,65,67,69,71,73,75,77,-1,79,81,83,85,87,89,91,93,95,97,99,101,103,105,107,109,-1,-1,-1,-1,-1,-1,-1,-1,-1,-1,-1,-1,-1,-1,-1,-1,-1,-1,-1,-1,-1,-1,-1,-1,-1,-1,-1,-1,-1,-1,-1,-1,-1,-1,-1,-1,-1,-1,-1,-1,-1,-1,-1,-1,-1,-1,-1,-1,-1,-1,-1,-1],"loss_changes":[9.267265E4,3.282503E4,2.0318938E4,2.3397766E4,5.4481934E2,1.6342855E4,3.1474258E3,8.045333E3,7.5380703E3,7.789045E2,2.1034082E2,6.0382266E3,2.6614332E4,1.0090508E3,3.6560923E3,1.0015272E4,6.503779E2,6.6173047E3,1.2607268E3,0E0,0E0,8.478583E2,1.2236328E0,5.2588896E3,2.2895488E3,3.319709E3,1.0992652E4,8.468789E2,1.2297656E2,2.2382129E2,3.7382349E3,5.4111914E2,5.8685107E3,3.8956885E2,0E0,9.964386E2,4.658164E3,4.6486456E2,8.982947E2,5.124642E2,1.4994751E2,6.583911E1,0E0,1.49095E3,1.1600863E3,2.0719727E2,3.7158071E3,2.261858E3,3.3881348E3,4.4333057E3,4.348291E3,7.436712E2,4.433047E2,3.137002E2,4.9740234E1,2.292871E1,4.0019308E2,2.440823E3,1.6515283E2,0E0,0E0,0E0,0E0,0E0,0E0,0E0,0E0,0E0,0E0,0E0,0E0,0E0,0E0,0E0,0E0,0E0,0E0,0E0,0E0,0E0,0E0,0E0,0E0,0E0,0E0,0E0,0E0,0E0,0E0,0E0,0E0,0E0,0E0,0E0,0E0,0E0,0E0,0E0,0E0,0E0,0E0,0E0,0E0,0E0,0E0,0E0,0E0,0E0,0E0,0E0,0E0],"parents":[2147483647,0,0,1,1,2,2,3,3,4,4,5,5,6,6,7,7,8,8,9,9,10,10,11,11,12,12,13,13,14,14,15,15,16,16,17,17,18,18,21,21,22,22,23,23,24,24,25,25,26,26,27,27,28,28,29,29,30,30,31,31,32,32,33,33,35,35,36,36,37,37,38,38,39,39,40,40,41,41,43,43,44,44,45,45,46,46,47,47,48,48,49,49,50,50,51,51,52,52,53,53,54,54,55,55,56,56,57,57,58,58],"right_children":[2,4,6,8,10,12,14,16,18,20,22,24,26,28,30,32,34,36,38,-1,-1,40,42,44,46,48,50,52,54,56,58,60,62,64,-1,66,68,70,72,74,76,78,-1,80,82,84,86,88,90,92,94,96,98,100,102,104,106,108,110,-1,-1,-1,-1,-1,-1,-1,-1,-1,-1,-1,-1,-1,-1,-1,-1,-1,-1,-1,-1,-1,-1,-1,-1,-1,-1,-1,-1,-1,-1,-1,-1,-1,-1,-1,-1,-1,-1,-1,-1,-1,-1,-1,-1,-1,-1,-1,-1,-1,-1,-1,-1],"split_conditions":[8.0064764E2,5.854118E-3,2.326041E0,9.42516E-3,1.3942231E0,3.4649915E3,6.698495E1,2.3174646E0,2.4973767E0,2.709045E0,1.5935516E0,1.8249043E1,1.7581086E-1,2.756943E0,-1.8051975E0,1.4903364E0,1.1948116E0,6.303689E-1,1.4453484E2,-1.1497419E-1,1.1485226E-1,5.476159E0,1.6928321E0,4.4621293E-6,2.2899233E3,4.837862E0,1.592293E0,9.950403E0,5.854118E-3,3.445196E-6,1.9036172E-5,1.9157649E0,2.0234466E0,4.6618297E-3,-1.2195845E-1,-1.1392566E0,4.9156776E-1,3.172173E-1,1.5316439E-1,2.8168771E0,2.4512267E-1,4.439584E-1,1.1397793E-1,3.0710753E-6,1.7807136E0,3.5960206E-1,1.2210479E0,1.1733364E0,2.931585E-1,1.1008905E4,4.48296E-6,1.7937192E2,4.475948E-6,5.2289253E-1,6.519793E1,1.0669391E-1,2.358638E-1,1.2591709E-1,1.0431704E1,-1.192507E-1,1.3737193E-1,-1.6881377E-2,9.519377E-2,-1.2701724E-1,1.21545404E-1,-1.2509502E-1,1.290897E-1,-1.00941256E-1,8.66903E-2,-1.2165885E-1,1.1396352E-1,1.1434112E-1,1.764547E-2,-9.5887534E-2,1.1767992E-1,1.1038834E-1,-1.1900746E-1,1.10370524E-1,-1.2777433E-1,1.0336783E-1,-1.1508045E-1,-1.3766664E-1,7.376634E-2,1.0639113E-1,-1.2439481E-1,1.1147324E-1,2.4354905E-2,-9.170553E-2,1.0893544E-1,-8.517595E-2,9.6457876E-2,3.2672856E-2,-1.0568481E-1,-9.763537E-2,3.5968803E-2,5.855184E-2,-6.844872E-2,8.000561E-2,1.0843742E-1,6.3812435E-2,1.0913344E-1,1.15274355E-1,7.745055E-2,-1.0517855E-1,1.1021854E-1,9.949026E-2,-2.8209608E-2,5.2383404E-2,-6.2870115E-2,1.0637418E-1,-1.4818208E-1],"split_indices":[5,10,18,17,0,5,4,8,18,18,0,4,20,18,14,0,0,18,9,0,0,11,0,13,5,4,0,4,10,13,6,3,18,17,0,14,17,3,15,18,15,16,0,13,0,15,18,14,16,5,13,9,13,7,4,8,10,15,10,0,0,0,0,0,0,0,0,0,0,0,0,0,0,0,0,0,0,0,0,0,0,0,0,0,0,0,0,0,0,0,0,0,0,0,0,0,0,0,0,0,0,0,0,0,0,0,0,0,0,0,0],"split_type":[0,0,0,0,0,0,0,0,0,0,0,0,0,0,0,0,0,0,0,0,0,0,0,0,0,0,0,0,0,0,0,0,0,0,0,0,0,0,0,0,0,0,0,0,0,0,0,0,0,0,0,0,0,0,0,0,0,0,0,0,0,0,0,0,0,0,0,0,0,0,0,0,0,0,0,0,0,0,0,0,0,0,0,0,0,0,0,0,0,0,0,0,0,0,0,0,0,0,0,0,0,0,0,0,0,0,0,0,0,0,0],"sum_hessian":[1.7884889E5,8.010907E4,9.873982E4,7.400481E4,6.1042603E3,6.067402E4,3.8065805E4,1.7582307E4,5.6422504E4,2.8802728E2,5.816233E3,2.4053066E4,3.6620953E4,2.8618475E4,9.447328E3,1.4888607E4,2.693699E3,5.397695E4,2.445558E3,1.3551698E2,1.5251028E2,1.4018505E3,4.414383E3,4.196691E3,1.9856375E4,1.2311683E4,2.430927E4,1.340727E4,1.5211205E4,3.8988323E3,5.548496E3,3.7643086E3,1.11243E4,2.638234E3,5.5465084E1,8.10759E2,5.3166188E4,3.5895828E2,2.0865999E3,2.608208E2,1.1410297E3,1.023452E3,3.3909307E3,1.9173098E3,2.279381E3,9.778066E3,1.0078309E4,1.2977305E3,1.1013952E4,8.7771E3,1.553217E4,2.169012E3,1.1238258E4,5.202289E3,1.0008916E4,3.311519E3,5.8731323E2,3.9394338E3,1.6090621E3,3.7243958E3,3.991279E1,7.902412E3,3.2218872E3,3.0499928E1,2.607734E3,8.3523E1,7.27236E2,5.2510465E4,6.55724E2,3.1255566E2,4.6402626E1,7.165714E2,1.3700284E3,1.8326299E2,7.755781E1,1.1276669E3,1.3362844E1,1.01851953E3,4.9325123E0,1.6699234E2,1.7503175E3,1.3426054E2,2.1451206E3,9.759756E3,1.83108E1,3.9364414E3,6.141867E3,9.0276605E2,3.9496445E2,5.2784827E2,1.0486104E4,7.4390596E3,1.3380398E3,1.4229741E4,1.3024288E3,1.9137106E3,2.5530139E2,6.744088E3,4.49417E3,9.1280054E2,4.289489E3,9.827031E3,1.8188527E2,1.6849028E0,3.3098342E3,4.194123E2,1.6790097E2,1.391092E3,2.5483418E3,1.5973043E3,1.1757866E1],"tree_param":{"num_deleted":"0","num_feature":"23","num_nodes":"111","size_leaf_vector":"1"}},{"base_weights":[-8.820343E-4,-7.090931E-1,5.9711736E-1,-8.891107E-1,1.4113429E0,2.778675E-1,1.1824652E0,-2.0923616E-2,-1.2152164E0,9.2440796E-1,1.5419302E0,9.730849E-1,-2.5887313E-1,8.7638503E-1,1.4058359E0,1.55282E0,-2.7450836E-1,-1.3221576E0,6.011086E-1,-5.460143E-1,1.5427513E0,1.591821E0,1.3945601E0,1.2148697E0,4.5050305E-1,-6.908539E-1,1.1017619E0,4.2561197E-1,1.2178015E0,1.4335775E0,-3.5920718E-1,-5.932892E-1,1.6436453E0,-5.942839E-1,1.4768153E0,1.5144287E0,-1.3510321E0,-3.2908583E-1,1.496678E0,1.2591067E-1,-1.1455888E0,1.6015744E0,-1.1398046E-1,1.6135614E0,1.0886856E-1,5.057122E-1,1.554068E0,1.3117796E0,3.8457543E-1,7.5026083E-1,-6.960571E-1,4.0885392E-1,-1.1176913E0,-1.179601E0,1.3478422E0,1.044077E0,-2.1522115E-1,5.365672E-1,1.3471451E0,1.1882356E0,1.5387435E0,-1.275557E0,1.4605836E0,-1.18063666E-1,1.098863E-1,1.1568695E-1,-1.1959727E-1,-7.51855E-2,2.6473481E-2,1.0878713E-1,-1.1700073E-1,1.3179488E-1,-1.0942237E-1,-9.694428E-2,6.474251E-2,1.1447343E-1,-8.707463E-2,1.1059166E-1,-1.204044E-1,-1.2083719E-1,1.0718274E-1,1.1269486E-1,-8.7844506E-2,1.1091933E-1,1.1782515E-1,-1.1551985E-1,1.07120715E-1,-1.0573337E-1,1.10519186E-1,1.03451535E-1,7.782762E-2,-5.942963E-2,6.3209176E-2,-8.430934E-2,6.272604E-2,8.810936E-2,-1.0468332E-1,-3.740342E-3,1.0604916E-1,8.5965835E-2,-8.7164685E-2,-9.9552915E-2,1.2846842E-1,1.01952896E-1,7.2320616E-3,-1.24332264E-1,8.327327E-2,1.0478569E-1,-4.9732592E-2,-4.8024107E-2,7.614673E-2,8.752741E-2,1.1092159E-1,6.1798766E-2,1.0312633E-1,-9.519129E-2,1.077499E-1,5.3423293E-2,-1.3520625E-1,1.1603164E-1,-1.2558296E-1],"categories":[],"categories_nodes":[],"categories_segments":[],"categories_sizes":[],"default_left":[0,0,0,0,0,0,0,0,0,0,0,0,0,0,0,0,0,0,0,0,0,0,0,0,0,0,0,0,0,0,0,0,0,0,0,0,0,0,0,0,0,0,0,0,0,0,0,0,0,0,0,0,0,0,0,0,0,0,0,0,0,0,0,0,0,0,0,0,0,0,0,0,0,0,0,0,0,0,0,0,0,0,0,0,0,0,0,0,0,0,0,0,0,0,0,0,0,0,0,0,0,0,0,0,0,0,0,0,0,0,0,0,0,0,0,0,0,0,0,0,0],"id":8,"left_children":[1,3,5,7,9,11,13,15,17,19,21,23,25,27,29,31,33,35,37,39,41,43,45,47,49,51,53,55,57,59,61,63,65,67,69,71,73,75,77,-1,79,81,-1,83,-1,85,87,89,91,93,95,97,99,101,103,105,107,109,111,113,115,117,119,-1,-1,-1,-1,-1,-1,-1,-1,-1,-1,-1,-1,-1,-1,-1,-1,-1,-1,-1,-1,-1,-1,-1,-1,-1,-1,-1,-1,-1,-1,-1,-1,-1,-1,-1,-1,-1,-1,-1,-1,-1,-1,-1,-1,-1,-1,-1,-1,-1,-1,-1,-1,-1,-1,-1,-1,-1,-1],"loss_changes":[7.346698E4,3.0316172E4,1.7575793E4,2.0725395E4,3.937744E2,2.2710988E4,2.268164E3,7.977771E3,1.0337273E4,1.198104E3,3.380078E1,3.3498906E3,2.018846E4,2.1551133E3,9.4004297E2,5.417168E2,9.642537E3,4.1182812E3,2.466042E3,5.5111694E2,1.755664E2,3.935547E-1,1.7603687E2,1.4581621E3,2.8838562E3,1.223775E4,4.648341E3,2.3933105E3,7.0149805E2,4.8558984E2,4.9831354E2,2.707729E2,8.3356445E1,6.793404E3,6.494492E2,5.775801E2,3.8381484E3,2.6125059E3,4.0634106E2,0E0,4.8700824E2,2.3751465E1,0E0,1.9067383E0,0E0,4.249772E2,8.263965E1,5.3750195E2,1.213354E3,1.896918E3,2.7197747E3,3.7279595E3,5.61949E3,5.9239E2,1.00994727E3,1.263394E3,2.5162488E3,8.5894116E2,1.518789E2,4.9241016E2,2.28125E1,2.669877E2,6.72032E1,0E0,0E0,0E0,0E0,0E0,0E0,0E0,0E0,0E0,0E0,0E0,0E0,0E0,0E0,0E0,0E0,0E0,0E0,0E0,0E0,0E0,0E0,0E0,0E0,0E0,0E0,0E0,0E0,0E0,0E0,0E0,0E0,0E0,0E0,0E0,0E0,0E0,0E0,0E0,0E0,0E0,0E0,0E0,0E0,0E0,0E0,0E0,0E0,0E0,0E0,0E0,0E0,0E0,0E0,0E0,0E0,0E0,0E0],"parents":[2147483647,0,0,1,1,2,2,3,3,4,4,5,5,6,6,7,7,8,8,9,9,10,10,11,11,12,12,13,13,14,14,15,15,16,16,17,17,18,18,19,19,20,20,21,21,22,22,23,23,24,24,25,25,26,26,27,27,28,28,29,29,30,30,31,31,32,32,33,33,34,34,35,35,36,36,37,37,38,38,40,40,41,41,43,43,45,45,46,46,47,47,48,48,49,49,50,50,51,51,52,52,53,53,54,54,55,55,56,56,57,57,58,58,59,59,60,60,61,61,62,62],"right_children":[2,4,6,8,10,12,14,16,18,20,22,24,26,28,30,32,34,36,38,40,42,44,46,48,50,52,54,56,58,60,62,64,66,68,70,72,74,76,78,-1,80,82,-1,84,-1,86,88,90,92,94,96,98,100,102,104,106,108,110,112,114,116,118,120,-1,-1,-1,-1,-1,-1,-1,-1,-1,-1,-1,-1,-1,-1,-1,-1,-1,-1,-1,-1,-1,-1,-1,-1,-1,-1,-1,-1,-1,-1,-1,-1,-1,-1,-1,-1,-1,-1,-1,-1,-1,-1,-1,-1,-1,-1,-1,-1,-1,-1,-1,-1,-1,-1,-1,-1,-1,-1],"split_conditions":[9.068813E2,5.854118E-3,1.5053041E-5,1.10465735E-2,7.995605E-1,3.4649915E3,1.9455914E-5,-1.7651947E0,2.3045325E0,1.4293717E0,2.3632897E-2,3.426758E-6,4.4693675E-6,6.33487E-1,1.1809553E4,6.22809E-1,2.3174646E0,-1.8092033E0,4.263026E-6,1.1900944E2,5.430461E-1,2.6928563E-5,-1.450311E0,-1.4115051E0,6.8255714E1,3.2693067E-6,4.684598E0,1.735925E-1,1.4027322E2,6.568304E-2,1.4848027E2,3.468668E0,3.854734E-6,5.2436562E-6,8.343204E-1,1.748335E-2,1.1733364E0,5.3801414E-2,7.606845E-1,1.2591067E-1,3.5150703E1,3.2595135E-2,-1.1398046E-1,3.6126198E-6,1.0886856E-1,7.598217E-1,8.863643E-1,2.2899233E3,5.4179436E-1,9.469738E0,7.573336E-6,1.1386563E0,-1.8153843E0,2.9039493E0,-1.099772E0,4.987267E0,-1.8153843E0,-1.3052616E-1,3.9912337E-1,-9.7168636E-1,1.7457734E-1,1.358353E0,1.5104659E2,-1.18063666E-1,1.098863E-1,1.1568695E-1,-1.1959727E-1,-7.51855E-2,2.6473481E-2,1.0878713E-1,-1.1700073E-1,1.3179488E-1,-1.0942237E-1,-9.694428E-2,6.474251E-2,1.1447343E-1,-8.707463E-2,1.1059166E-1,-1.204044E-1,-1.2083719E-1,1.0718274E-1,1.1269486E-1,-8.7844506E-2,1.1091933E-1,1.1782515E-1,-1.1551985E-1,1.07120715E-1,-1.0573337E-1,1.10519186E-1,1.03451535E-1,7.782762E-2,-5.942963E-2,6.3209176E-2,-8.430934E-2,6.272604E-2,8.810936E-2,-1.0468332E-1,-3.740342E-3,1.0604916E-1,8.5965835E-2,-8.7164685E-2,-9.9552915E-2,1.2846842E-1,1.01952896E-1,7.2320616E-3,-1.24332264E-1,8.327327E-2,1.0478569E-1,-4.9732592E-2,-4.8024107E-2,7.614673E-2,8.752741E-2,1.1092159E-1,6.1798766E-2,1.0312633E-1,-9.519129E-2,1.077499E-1,5.3423293E-2,-1.3520625E-1,1.1603164E-1,-1.2558296E-1],"split_indices":[5,10,6,17,1,5,6,14,1,7,17,13,13,7,5,1,8,14,13,9,21,6,14,14,4,13,4,20,9,10,9,7,13,13,1,22,14,17,16,0,11,17,0,13,0,4,1,5,1,4,6,1,14,1,14,4,14,21,17,19,1,11,9,0,0,0,0,0,0,0,0,0,0,0,0,0,0,0,0,0,0,0,0,0,0,0,0,0,0,0,0,0,0,0,0,0,0,0,0,0,0,0,0,0,0,0,0,0,0,0,0,0,0,0,0,0,0,0,0,0,0],"split_type":[0,0,0,0,0,0,0,0,0,0,0,0,0,0,0,0,0,0,0,0,0,0,0,0,0,0,0,0,0,0,0,0,0,0,0,0,0,0,0,0,0,0,0,0,0,0,0,0,0,0,0,0,0,0,0,0,0,0,0,0,0,0,0,0,0,0,0,0,0,0,0,0,0,0,0,0,0,0,0,0,0,0,0,0,0,0,0,0,0,0,0,0,0,0,0,0,0,0,0,0,0,0,0,0,0,0,0,0,0,0,0,0,0,0,0,0,0,0,0,0,0],"sum_hessian":[1.7346972E5,7.941651E4,9.40532E4,7.320245E4,6.214051E3,6.086098E4,3.3192223E4,1.998847E4,5.3213984E4,1.3157924E3,4.8982583E3,2.6515613E4,3.4345367E4,1.4005583E4,1.9186643E4,2.773159E3,1.7215312E4,5.0255332E4,2.9586528E3,3.895525E2,9.262399E2,3.6520796E3,1.2461786E3,1.8127277E4,8.388337E3,2.6069268E4,8.276101E3,6.03707E3,7.9685127E3,1.8889932E4,2.9670984E2,1.12372894E2,2.6607861E3,1.4557845E4,2.6574673E3,5.058901E2,4.974944E4,1.4515817E3,1.5070712E3,7.892048E1,3.1063202E2,9.0985693E2,1.6382986E1,2.2630505E3,1.3890292E3,1.9024133E2,1.0559373E3,1.6232124E4,1.8951533E3,6.650079E3,1.7382574E3,7.289242E3,1.8780025E4,8.054194E2,7.470681E3,3.071831E3,2.965239E3,1.2723539E3,6.6961587E3,5.671407E3,1.3218524E4,1.9753886E2,9.9171E1,7.479039E1,3.7582497E1,2.654147E3,6.6390514E0,9.748221E3,4.809624E3,2.5942866E3,6.318077E1,4.5215982E2,5.3730278E1,4.9019977E4,7.294655E2,4.6096628E2,9.906154E2,1.4695687E3,3.75024E1,2.5555171E2,5.508029E1,9.0763947E2,2.2174726E0,1.6145928E3,6.484577E2,6.108713E1,1.291542E2,7.9881E0,1.0479492E3,8.863239E3,7.368885E3,5.605883E2,1.3345651E3,4.611713E2,6.1889077E3,5.0437375E2,1.2338838E3,5.1414316E3,2.1478103E3,9.67819E2,1.7812207E4,7.4592834E2,5.9490997E1,6.870798E3,5.9988354E2,1.5019476E2,2.9216362E3,6.6481555E2,2.3004236E3,3.9531757E2,8.770364E2,4.762037E3,1.9341213E3,2.7397068E3,2.9317007E3,1.996795E0,1.3216528E4,4.804622E1,1.4949265E2,9.397324E1,5.197754E0],"tree_param":{"num_deleted":"0","num_feature":"23","num_nodes":"121","size_leaf_vector":"1"}},{"base_weights":[1.0277314E-2,-4.209461E-1,8.992471E-1,-7.651695E-1,5.045033E-1,5.7587314E-1,1.3270717E0,1.1686515E0,-8.7162995E-1,1.4757552E0,2.884711E-1,1.4103034E0,3.8350388E-1,1.1105255E0,1.4245589E0,1.2466942E0,-1.1572472E-1,3.016378E-1,-1.0877546E0,1.5318456E0,1.0535102E0,4.648572E-2,1.4954195E0,1.3279488E0,1.5404345E0,1.1580327E0,1.1573854E-1,-8.4527826E-1,1.1240492E0,1.313053E0,1.4669862E0,1.4562026E0,7.807853E-1,1.07922E0,-3.1958073E-1,-1.1995196E0,1.4283254E0,-9.7304404E-2,1.5335594E0,6.286386E-2,1.232119E0,-3.993506E-1,7.846699E-1,1.6223066E0,9.893278E-1,1.3870485E0,9.3052775E-1,1.5426883E0,-8.0671504E-2,7.2605693E-1,1.4076707E0,-2.5707227E-1,6.476571E-1,9.786712E-2,-1.4289431E-1,1.0303897E0,1.3891497E0,1.3850254E0,9.890657E-1,1.5300338E0,1.4313762E0,-1.2426622E-1,1.0291467E-1,-1.23972476E-1,6.841297E-2,8.258666E-2,-5.4724712E-2,-6.0665708E-2,7.265004E-2,-8.884125E-2,8.446506E-2,-1.10457666E-1,1.077688E-1,1.0743662E-1,-7.959945E-2,1.0652027E-1,-6.1506327E-2,4.3771554E-2,9.868586E-2,8.142769E-2,-5.180069E-2,2.7680527E-2,9.753677E-2,4.9654696E-2,1.14837416E-1,-5.709808E-2,9.231535E-2,-1.13607556E-1,9.728986E-2,7.860221E-2,-4.952733E-2,1.0420777E-1,1.1090324E-1,8.7127276E-2,6.7581018E-3,-1.408921E-1,9.8917134E-2,-4.99471E-2,4.2063363E-2,2.9102035E-2,9.391349E-2,9.143239E-2,5.0262954E-2,9.819286E-2,-1.1058061E-1,8.663569E-2,1.03464365E-1,8.8128604E-2,-1.7846284E-2,1.13012865E-1,1.0403914E-1,1.0042691E-1,-1.2536186E-1],"categories":[],"categories_nodes":[],"categories_segments":[],"categories_sizes":[],"default_left":[0,0,0,0,0,0,0,0,0,0,0,0,0,0,0,0,0,0,0,0,0,0,0,0,0,0,0,0,0,0,0,0,0,0,0,0,0,0,0,0,0,0,0,0,0,0,0,0,0,0,0,0,0,0,0,0,0,0,0,0,0,0,0,0,0,0,0,0,0,0,0,0,0,0,0,0,0,0,0,0,0,0,0,0,0,0,0,0,0,0,0,0,0,0,0,0,0,0,0,0,0,0,0,0,0,0,0,0,0,0,0,0,0],"id":9,"left_children":[1,3,5,7,9,11,13,15,17,19,21,23,25,27,29,31,-1,33,35,37,39,41,43,45,47,49,51,53,55,57,59,61,63,65,67,69,71,-1,73,75,77,79,81,83,85,87,89,91,-1,93,95,97,99,-1,-1,101,103,105,107,109,111,-1,-1,-1,-1,-1,-1,-1,-1,-1,-1,-1,-1,-1,-1,-1,-1,-1,-1,-1,-1,-1,-1,-1,-1,-1,-1,-1,-1,-1,-1,-1,-1,-1,-1,-1,-1,-1,-1,-1,-1,-1,-1,-1,-1,-1,-1,-1,-1,-1,-1,-1,-1],"loss_changes":[6.49722E4,3.635679E4,7.6582656E3,1.7127E4,6.491825E3,5.0607812E3,5.015E2,9.580669E2,1.9993484E4,1.3171973E2,7.3929375E3,6.1257812E1,5.3143115E3,1.9674219E2,7.5796875E1,4.1125E2,0E0,5.9252026E3,1.8725094E4,2.7006836E1,1.1729584E2,6.940081E3,2.6986816E2,8.384668E1,1.5634277E1,7.088701E2,3.7765166E3,1.4078519E2,1.8111523E2,1.0444336E2,2.4509766E1,1.3446631E2,6.600751E2,1.0206699E3,5.0648745E3,1.0684023E4,9.4949023E2,0E0,1.83125E1,1.4196715E2,5.9708923E1,6.9992974E3,1.8807676E3,5.5058594E1,5.0655994E2,2.8896973E1,1.496128E2,2.7729492E0,0E0,7.8768616E2,8.0328125E1,4.3854253E3,1.2623965E3,0E0,0E0,4.6737695E2,7.962891E1,4.904541E1,2.7845258E2,1.3407227E1,8.340039E1,0E0,0E0,0E0,0E0,0E0,0E0,0E0,0E0,0E0,0E0,0E0,0E0,0E0,0E0,0E0,0E0,0E0,0E0,0E0,0E0,0E0,0E0,0E0,0E0,0E0,0E0,0E0,0E0,0E0,0E0,0E0,0E0,0E0,0E0,0E0,0E0,0E0,0E0,0E0,0E0,0E0,0E0,0E0,0E0,0E0,0E0,0E0,0E0,0E0,0E0,0E0,0E0],"parents":[2147483647,0,0,1,1,2,2,3,3,4,4,5,5,6,6,7,7,8,8,9,9,10,10,11,11,12,12,13,13,14,14,15,15,17,17,18,18,19,19,20,20,21,21,22,22,23,23,24,24,25,25,26,26,27,27,28,28,29,29,30,30,31,31,32,32,33,33,34,34,35,35,36,36,38,38,39,39,40,40,41,41,42,42,43,43,44,44,45,45,46,46,47,47,49,49,50,50,51,51,52,52,55,55,56,56,57,57,58,58,59,59,60,60],"right_children":[2,4,6,8,10,12,14,16,18,20,22,24,26,28,30,32,-1,34,36,38,40,42,44,46,48,50,52,54,56,58,60,62,64,66,68,70,72,-1,74,76,78,80,82,84,86,88,90,92,-1,94,96,98,100,-1,-1,102,104,106,108,110,112,-1,-1,-1,-1,-1,-1,-1,-1,-1,-1,-1,-1,-1,-1,-1,-1,-1,-1,-1,-1,-1,-1,-1,-1,-1,-1,-1,-1,-1,-1,-1,-1,-1,-1,-1,-1,-1,-1,-1,-1,-1,-1,-1,-1,-1,-1,-1,-1,-1,-1,-1,-1],"split_conditions":[2.2009928E0,5.854118E-3,2.756943E0,-1.7896627E0,9.663388E-1,-1.8092033E0,2.997838E0,3.4580433E-3,1.5630266E-1,8.103616E-1,3.028167E-3,6.188726E0,1.3067886E-1,-2.0231387E-1,3.203148E0,1.6409895E-1,-1.1572472E-1,6.0777545E-1,2.3174646E0,1.3919902E0,1.2983531E-3,1.9617892E2,7.5192E-1,-1.8153843E0,8.962473E-1,1.4265676E-1,1.3341908E0,-4.152214E0,2.0316067E0,1.8535478E0,1.4678511E-1,1.0892618E-3,1.6338321E2,1.8029123E2,4.0159476E-1,1.0697194E0,-6.5220326E-2,-9.7304404E-2,1.9983357E0,-3.3396313E-1,-2.0325047E-1,-1.8092033E0,2.5768988E0,2.5251356E-3,8.413325E-2,5.4530434E-2,1.7425997E0,9.42516E-3,-8.0671504E-2,6.475701E-1,-1.7526703E0,1.6279286E-5,4.911186E-1,9.786712E-2,-1.4289431E-1,1.5316439E-1,1.284038E0,6.459585E-1,2.2945972E-3,5.854118E-3,1.7433889E0,-1.2426622E-1,1.0291467E-1,-1.23972476E-1,6.841297E-2,8.258666E-2,-5.4724712E-2,-6.0665708E-2,7.265004E-2,-8.884125E-2,8.446506E-2,-1.10457666E-1,1.077688E-1,1.0743662E-1,-7.959945E-2,1.0652027E-1,-6.1506327E-2,4.3771554E-2,9.868586E-2,8.142769E-2,-5.180069E-2,2.7680527E-2,9.753677E-2,4.9654696E-2,1.14837416E-1,-5.709808E-2,9.231535E-2,-1.13607556E-1,9.728986E-2,7.860221E-2,-4.952733E-2,1.0420777E-1,1.1090324E-1,8.7127276E-2,6.7581018E-3,-1.408921E-1,9.8917134E-2,-4.99471E-2,4.2063363E-2,2.9102035E-2,9.391349E-2,9.143239E-2,5.0262954E-2,9.819286E-2,-1.1058061E-1,8.663569E-2,1.03464365E-1,8.8128604E-2,-1.7846284E-2,1.13012865E-1,1.0403914E-1,1.0042691E-1,-1.2536186E-1],"split_indices":[18,10,18,14,18,14,18,12,20,18,12,11,20,8,18,15,0,16,8,0,12,9,16,14,21,3,7,7,0,3,15,12,9,9,21,3,21,0,8,21,21,14,10,22,10,8,0,17,0,16,19,6,10,0,0,15,16,7,12,10,8,0,0,0,0,0,0,0,0,0,0,0,0,0,0,0,0,0,0,0,0,0,0,0,0,0,0,0,0,0,0,0,0,0,0,0,0,0,0,0,0,0,0,0,0,0,0,0,0,0,0,0,0],"split_type":[0,0,0,0,0,0,0,0,0,0,0,0,0,0,0,0,0,0,0,0,0,0,0,0,0,0,0,0,0,0,0,0,0,0,0,0,0,0,0,0,0,0,0,0,0,0,0,0,0,0,0,0,0,0,0,0,0,0,0,0,0,0,0,0,0,0,0,0,0,0,0,0,0,0,0,0,0,0,0,0,0,0,0,0,0,0,0,0,0,0,0,0,0,0,0,0,0,0,0,0,0,0,0,0,0,0,0,0,0,0,0,0,0],"sum_hessian":[1.6948572E5,1.1412584E5,5.5359887E4,8.318509E4,3.0940744E4,3.1530045E4,2.382984E4,4.3400215E3,7.884508E4,5.628761E3,2.5311982E4,5.905919E3,2.5624127E4,7.4014785E3,1.6428361E4,4.223765E3,1.16256294E2,1.2264555E4,6.658052E4,4.9664043E3,6.623572E2,2.1085512E4,4.2264707E3,3.6237854E3,2.2821335E3,6.5819834E3,1.9042143E4,5.0404762E1,7.3510737E3,4.536813E3,1.1891549E4,2.912125E3,1.3116401E3,5.4464585E3,6.8180957E3,6.374928E4,2.831238E3,2.4364939E0,4.963968E3,1.0138448E2,5.6097266E2,1.3146166E4,7.939346E3,3.3774683E3,8.490025E2,3.1524946E3,4.7129062E2,2.2806519E3,1.4816294E0,2.4120544E3,4.169929E3,1.1195772E4,7.8463706E3,1.7469526E1,3.2935234E1,5.43558E3,1.9154937E3,3.7094902E3,8.27323E2,4.2770396E3,7.614509E3,1.2025796E1,2.900099E3,9.3226006E1,1.2184142E3,5.167514E3,2.7894415E2,4.85985E3,1.9582458E3,6.195656E4,1.792723E3,1.0054413E2,2.730694E3,4.962072E3,1.8960799E0,3.9525368E1,6.1859116E1,1.2807819E2,4.328945E2,2.3525603E3,1.0793606E4,4.843731E3,3.095615E3,6.6895706E1,3.3105725E3,1.308183E2,7.181842E2,2.3990684E0,3.1500957E3,4.2204364E2,4.9246975E1,1.0089441E3,1.2717078E3,1.3219777E3,1.0900768E3,6.0249386E0,4.1639043E3,7.307979E3,3.8877932E3,5.882212E3,1.9641588E3,2.885046E3,2.5505344E3,1.9072806E3,8.213011E0,1.4410835E3,2.2684067E3,6.798117E2,1.4751128E2,1.4477356E3,2.829304E3,7.607287E3,7.221808E0],"tree_param":{"num_deleted":"0","num_feature":"23","num_nodes":"113","size_leaf_vector":"1"}},{"base_weights":[5.7006273E-3,-6.0822976E-1,5.081973E-1,-7.718137E-1,1.2608327E0,9.13322E-1,1.3476823E-1,-2.6066551E-2,-1.0600715E0,8.622384E-1,1.4208568E0,-3.5247377E-1,9.988461E-1,9.6205956E-1,-2.6372328E-1,-2.296953E-1,1.3568239E0,-1.1635875E0,5.9313875E-1,-2.5147337E-1,1.2454075E0,1.4587829E0,1.3679396E0,1.2539241E0,-1.0133764E0,1.0426066E0,-9.2372906E-1,-8.7894934E-1,1.044241E0,8.344035E-1,-5.344995E-1,-1.4057734E0,1.16448E-1,1.4298795E0,-1.1042316E-1,7.577062E-1,-1.1946387E0,2.1969014E-1,1.4601552E0,-1.3181204E0,1.1812915E0,-1.1582982E-1,1.3123299E0,9.991193E-2,1.5379205E0,9.149085E-1,1.3914554E0,-1.2136183E-1,1.361104E0,-1.1753187E0,1.4400041E0,1.1782942E0,7.578727E-1,1.8509285E-1,-1.4518284E0,-1.446113E0,1.0040445E0,-2.749822E-1,1.1497654E0,-5.328106E-1,9.691856E-1,-6.4959425E-1,1.3669009E0,-1.03921264E-1,1.118989E-1,-3.2940164E-2,5.066358E-2,-1.3059013E-1,1.0453695E-1,1.3104822E-1,-3.528737E-3,-8.710307E-2,-2.398828E-3,1.05824724E-1,-2.7154172E-2,1.0272608E-1,-6.955615E-2,-1.07851595E-1,1.00751646E-1,9.518235E-2,-1.01541445E-1,9.5804945E-2,-2.6188888E-2,1.1363785E-1,1.03090666E-1,-1.30475E-1,1.0878199E-1,8.028399E-2,9.770814E-2,-1.2832998E-1,9.8628424E-2,-9.139538E-2,7.128961E-2,1.1059642E-1,-1.2250771E-1,4.8980735E-2,8.707809E-2,1.300505E-2,7.724445E-2,-1.192507E-1,6.1833784E-2,-1.0722443E-1,9.265033E-2,9.766809E-2,-1.0871585E-1,8.8727534E-2,-1.0011023E-1,4.156359E-2,-7.366504E-2,8.967481E-2,5.6746624E-2,-9.460373E-2,7.846846E-2,8.436846E-2,2.8139183E-2,8.7618604E-2,-5.2778807E-2,1.0410111E-1,-1.066935E-1],"categories":[],"categories_nodes":[],"categories_segments":[],"categories_sizes":[],"default_left":[0,0,0,0,0,0,0,0,0,0,0,0,0,0,0,0,0,0,0,0,0,0,0,0,0,0,0,0,0,0,0,0,0,0,0,0,0,0,0,0,0,0,0,0,0,0,0,0,0,0,0,0,0,0,0,0,0,0,0,0,0,0,0,0,0,0,0,0,0,0,0,0,0,0,0,0,0,0,0,0,0,0,0,0,0,0,0,0,0,0,0,0,0,0,0,0,0,0,0,0,0,0,0,0,0,0,0,0,0,0,0,0,0,0,0,0,0,0,0],"id":10,"left_children":[1,3,5,7,9,11,13,15,17,19,21,23,25,27,29,31,33,35,37,39,41,43,45,47,49,51,53,55,57,59,61,63,65,67,-1,69,71,73,75,77,79,-1,81,-1,83,85,87,-1,89,91,93,95,97,99,101,103,105,107,109,111,113,115,117,-1,-1,-1,-1,-1,-1,-1,-1,-1,-1,-1,-1,-1,-1,-1,-1,-1,-1,-1,-1,-1,-1,-1,-1,-1,-1,-1,-1,-1,-1,-1,-1,-1,-1,-1,-1,-1,-1,-1,-1,-1,-1,-1,-1,-1,-1,-1,-1,-1,-1,-1,-1,-1,-1,-1,-1],"loss_changes":[4.975278E4,2.2194814E4,1.3416727E4,1.4348473E4,3.7141602E2,4.605293E3,1.5214223E4,5.2404546E3,8.239008E3,7.155802E2,6.3671875E0,2.860255E3,3.353289E3,2.2708135E3,9.262001E3,6.603656E3,5.1428467E2,2.703629E3,9.183633E2,6.585264E2,2.4423901E2,3.8125E0,1.743164E1,2.5386218E2,7.5994934E2,1.5042891E3,5.198361E2,6.8670776E2,1.9996973E3,1.1359316E3,5.469035E3,8.758091E2,4.4686357E3,4.9062744E2,0E0,6.495353E2,2.5706133E3,1.5584319E3,1.6881958E1,1.5377628E2,8.838519E1,0E0,1.1634131E2,0E0,1.3621826E0,1.6195584E2,1.8310547E-1,0E0,1.1861902E2,5.1335645E2,5.5723785E1,8.2841406E2,2.4864893E3,3.8017572E2,1.354165E2,1.5217126E2,9.7455826E1,7.1956616E2,5.9108594E2,7.509699E2,7.505698E2,4.6772383E3,4.9822168E2,0E0,0E0,0E0,0E0,0E0,0E0,0E0,0E0,0E0,0E0,0E0,0E0,0E0,0E0,0E0,0E0,0E0,0E0,0E0,0E0,0E0,0E0,0E0,0E0,0E0,0E0,0E0,0E0,0E0,0E0,0E0,0E0,0E0,0E0,0E0,0E0,0E0,0E0,0E0,0E0,0E0,0E0,0E0,0E0,0E0,0E0,0E0,0E0,0E0,0E0,0E0,0E0,0E0,0E0,0E0,0E0],"parents":[2147483647,0,0,1,1,2,2,3,3,4,4,5,5,6,6,7,7,8,8,9,9,10,10,11,11,12,12,13,13,14,14,15,15,16,16,17,17,18,18,19,19,20,20,21,21,22,22,23,23,24,24,25,25,26,26,27,27,28,28,29,29,30,30,31,31,32,32,33,33,35,35,36,36,37,37,38,38,39,39,40,40,42,42,44,44,45,45,46,46,48,48,49,49,50,50,51,51,52,52,53,53,54,54,55,55,56,56,57,57,58,58,59,59,60,60,61,61,62,62],"right_children":[2,4,6,8,10,12,14,16,18,20,22,24,26,28,30,32,34,36,38,40,42,44,46,48,50,52,54,56,58,60,62,64,66,68,-1,70,72,74,76,78,80,-1,82,-1,84,86,88,-1,90,92,94,96,98,100,102,104,106,108,110,112,114,116,118,-1,-1,-1,-1,-1,-1,-1,-1,-1,-1,-1,-1,-1,-1,-1,-1,-1,-1,-1,-1,-1,-1,-1,-1,-1,-1,-1,-1,-1,-1,-1,-1,-1,-1,-1,-1,-1,-1,-1,-1,-1,-1,-1,-1,-1,-1,-1,-1,-1,-1,-1,-1,-1,-1,-1,-1],"split_conditions":[9.068813E2,5.854118E-3,2.1499908E0,1.10465735E-2,1.5935516E0,6.033537E0,1.7581086E-1,2.3174646E0,2.3045325E0,5.1599975E0,1.581994E-2,9.1723554E-2,1.1401677E4,2.6171333E-1,2.6501099E3,1.4903364E0,8.343204E-1,4.109351E-6,2.7477697E-1,1.4040455E-5,1.7457734E-1,9.2689665E-3,8.457308E-1,1.397118E-5,5.6570947E-2,4.9183145E3,1.4827432E1,2.075418E1,4.987267E0,2.9270868E1,3.9912337E-1,2.098866E0,8.051686E-1,8.831889E-3,-1.1042316E-1,1.3740646E2,1.8700653E1,1.2640068E-1,1.8451929E2,1.56028E0,3.130206E-1,-1.1582982E-1,1.6851044E0,9.991193E-2,1.7357157E0,1.7413051E0,9.923229E-1,-1.2136183E-1,1.3478954E-1,4.9156776E-1,5.430461E-1,6.019891E-1,8.6442366E-2,1.4848027E2,2.0316067E0,3.418385E-1,-6.7081517E-1,1.581994E-2,1.4052778E0,2.0905252E0,2.3265732E3,4.109351E-6,9.407609E3,-1.03921264E-1,1.118989E-1,-3.2940164E-2,5.066358E-2,-1.3059013E-1,1.0453695E-1,1.3104822E-1,-3.528737E-3,-8.710307E-2,-2.398828E-3,1.05824724E-1,-2.7154172E-2,1.0272608E-1,-6.955615E-2,-1.07851595E-1,1.00751646E-1,9.518235E-2,-1.01541445E-1,9.5804945E-2,-2.6188888E-2,1.1363785E-1,1.03090666E-1,-1.30475E-1,1.0878199E-1,8.028399E-2,9.770814E-2,-1.2832998E-1,9.8628424E-2,-9.139538E-2,7.128961E-2,1.1059642E-1,-1.2250771E-1,4.8980735E-2,8.707809E-2,1.300505E-2,7.724445E-2,-1.192507E-1,6.1833784E-2,-1.0722443E-1,9.265033E-2,9.766809E-2,-1.0871585E-1,8.8727534E-2,-1.0011023E-1,4.156359E-2,-7.366504E-2,8.967481E-2,5.6746624E-2,-9.460373E-2,7.846846E-2,8.436846E-2,2.8139183E-2,8.7618604E-2,-5.2778807E-2,1.0410111E-1,-1.066935E-1],"split_indices":[5,10,2,17,0,4,20,8,1,11,22,15,5,16,5,0,1,6,22,6,1,17,1,6,10,5,4,4,4,4,17,1,1,22,0,9,11,20,9,1,16,0,19,0,1,0,1,0,8,17,21,1,10,9,0,1,19,22,1,0,5,6,5,0,0,0,0,0,0,0,0,0,0,0,0,0,0,0,0,0,0,0,0,0,0,0,0,0,0,0,0,0,0,0,0,0,0,0,0,0,0,0,0,0,0,0,0,0,0,0,0,0,0,0,0,0,0,0,0],"split_type":[0,0,0,0,0,0,0,0,0,0,0,0,0,0,0,0,0,0,0,0,0,0,0,0,0,0,0,0,0,0,0,0,0,0,0,0,0,0,0,0,0,0,0,0,0,0,0,0,0,0,0,0,0,0,0,0,0,0,0,0,0,0,0,0,0,0,0,0,0,0,0,0,0,0,0,0,0,0,0,0,0,0,0,0,0,0,0,0,0,0,0,0,0,0,0,0,0,0,0,0,0,0,0,0,0,0,0,0,0,0,0,0,0,0,0,0,0,0,0],"sum_hessian":[1.6127227E5,7.2587516E4,8.868474E4,6.6746336E4,5.841181E3,4.253646E4,4.6148285E4,1.8607709E4,4.813863E4,1.6751193E3,4.166062E3,2.691906E3,3.9844555E4,1.5001952E4,3.1146332E4,1.6220148E4,2.387561E3,4.5302312E4,2.8363171E3,4.288822E2,1.246237E3,2.411303E3,1.7547589E3,7.844106E2,1.9074952E3,3.8958266E4,8.862878E2,6.4064594E2,1.4361307E4,6.1604966E3,2.4985834E4,3.687661E3,1.2532487E4,2.3300618E3,5.7499207E1,7.201409E2,4.458217E4,1.9833048E3,8.530124E2,2.4589864E2,1.8298355E2,2.7574095E1,1.218663E3,1.7388651E3,6.724379E2,8.855986E1,1.6661991E3,2.6639952E1,7.577706E2,1.7898707E3,1.1762455E2,2.6382682E4,1.2575585E4,2.861414E2,6.001464E2,4.9252722E2,1.4811873E2,1.0635569E3,1.329775E4,5.525489E2,5.6079478E3,2.356035E4,1.4254856E3,3.593884E3,9.377677E1,6.372842E3,6.1596455E3,4.351628E1,2.2865457E3,3.0215112E2,4.179898E2,4.2751344E4,1.8308257E3,6.338719E2,1.349433E3,8.508622E2,2.150226E0,2.279377E2,1.7960941E1,1.7181677E2,1.1166782E1,1.179468E3,3.9194973E1,2.8062198E2,3.9181595E2,1.6201366E1,7.23585E1,3.391282E1,1.6322863E3,1.0638142E1,7.471325E2,1.6898802E3,9.999045E1,1.1316493E2,4.459613E0,3.1852012E3,2.319748E4,4.7367017E3,7.8388833E3,7.6845024E1,2.0929639E2,5.83778E2,1.63684E1,1.743272E1,4.7509448E2,1.3408394E2,1.4034779E1,5.0237225E2,5.6118463E2,9.583952E3,3.7137976E3,3.6971332E2,1.8283556E2,3.9590093E3,1.6489387E3,1.2256647E3,2.2334684E4,1.3690254E3,5.6460243E1],"tree_param":{"num_deleted":"0","num_feature":"23","num_nodes":"119","size_leaf_vector":"1"}},{"base_weights":[6.0009426E-3,-5.885559E-1,4.728742E-1,-7.394587E-1,1.2078912E0,8.7562555E-1,1.0157324E-1,1.2627155E0,-8.384143E-1,1.016402E-1,1.2651513E0,-3.9065835E-1,9.541882E-1,-2.3802648E-1,9.810528E-1,1.4649563E0,-5.725314E-1,-1.0790808E0,-2.862624E-1,-1.01259105E-1,1.3875947E0,-3.496664E-1,1.2913579E0,8.6825186E-1,-1.1538043E0,9.9752843E-1,-7.9550844E-1,1.1475806E0,-5.125871E-1,-4.467349E-1,1.137872E0,-1.1207914E-1,1.4939073E0,1.8863138E0,-1.0129623E0,-1.2183245E0,1.3344462E-1,-5.7095873E-1,7.4762404E-1,1.1679856E-1,9.3152665E-2,-1.041774E-1,9.55268E-2,1.0792849E0,1.3747293E0,-9.929657E-1,1.2736388E0,-1.4349095E0,3.5893068E-1,1.169283E0,7.7212906E-1,-1.3173418E0,1.0313594E0,1.2534441E0,5.6405944E-1,-7.009481E-1,9.4736373E-1,5.1262826E-1,-1.1826057E0,-8.662019E-1,1.1822704E0,1.0533301E-1,-1.1473208E-1,-9.0315595E-2,1.8947081E-1,-1.0083795E-1,1.07167855E-1,-8.82273E-2,9.70609E-2,9.739054E-2,-3.910069E-2,4.7142033E-2,-5.5992138E-2,8.715567E-2,-6.656335E-2,-1.7315326E-2,9.22689E-2,9.8633476E-2,9.290496E-2,1.0621232E-1,-1.2144474E-1,-1.3151667E-1,9.294773E-2,9.60035E-2,-1.0353745E-1,8.508149E-2,-1.2140597E-1,-8.219533E-3,8.394324E-2,2.1357518E-2,8.5554555E-2,-9.788182E-3,-1.0482183E-1,-1.1672518E-1,8.920007E-2,9.7025886E-2,7.471575E-2,5.148044E-2,-1.2804061E-1,2.1121312E-2,-6.957679E-2,8.401859E-2,3.0400831E-2,7.272702E-2,-5.9252128E-2,-1.0047923E-1,1.1864669E-1,-1.1280098E-1,9.327851E-2,8.334479E-2,-1.1084482E-1],"categories":[],"categories_nodes":[],"categories_segments":[],"categories_sizes":[],"default_left":[0,0,0,0,0,0,0,0,0,0,0,0,0,0,0,0,0,0,0,0,0,0,0,0,0,0,0,0,0,0,0,0,0,0,0,0,0,0,0,0,0,0,0,0,0,0,0,0,0,0,0,0,0,0,0,0,0,0,0,0,0,0,0,0,0,0,0,0,0,0,0,0,0,0,0,0,0,0,0,0,0,0,0,0,0,0,0,0,0,0,0,0,0,0,0,0,0,0,0,0,0,0,0,0,0,0,0,0,0,0,0],"id":11,"left_children":[1,3,5,7,9,11,13,15,17,19,21,23,25,27,29,31,33,35,37,-1,39,41,43,45,47,49,51,53,55,57,59,-1,61,63,65,67,69,71,73,-1,-1,-1,-1,75,77,79,81,83,85,87,89,91,93,95,97,99,101,103,105,107,109,-1,-1,-1,-1,-1,-1,-1,-1,-1,-1,-1,-1,-1,-1,-1,-1,-1,-1,-1,-1,-1,-1,-1,-1,-1,-1,-1,-1,-1,-1,-1,-1,-1,-1,-1,-1,-1,-1,-1,-1,-1,-1,-1,-1,-1,-1,-1,-1,-1,-1],"loss_changes":[4.3774758E4,1.8804916E4,1.3209719E4,1.2679211E4,3.4037988E2,4.2157324E3,1.3728124E4,1.1195605E3,8.1025977E3,5.308639E2,2.1674023E2,2.3798022E3,3.026336E3,1.2615765E4,2.8674268E3,2.4341211E2,3.2668683E2,7.170082E3,5.4491597E3,0E0,1.0510254E-1,1.628815E2,8.744141E1,7.0677313E2,6.562224E2,1.5063594E3,9.212583E2,3.3808203E2,7.611691E3,8.956842E2,1.0275898E3,0E0,9.391553E1,1.2312973E2,2.7956873E2,4.175785E3,3.809343E3,4.1356714E3,3.3786482E3,0E0,0E0,0E0,0E0,4.5151086E2,4.0112305E0,3.151605E2,1.3372632E2,1.633396E2,4.3678595E2,8.5033984E2,3.5394287E3,1.5906433E2,1.4305289E2,1.1307373E2,3.4750488E2,7.202452E3,4.099187E2,3.9506714E2,5.2462976E2,4.1283972E2,2.6317285E2,0E0,0E0,0E0,0E0,0E0,0E0,0E0,0E0,0E0,0E0,0E0,0E0,0E0,0E0,0E0,0E0,0E0,0E0,0E0,0E0,0E0,0E0,0E0,0E0,0E0,0E0,0E0,0E0,0E0,0E0,0E0,0E0,0E0,0E0,0E0,0E0,0E0,0E0,0E0,0E0,0E0,0E0,0E0,0E0,0E0,0E0,0E0,0E0,0E0,0E0],"parents":[2147483647,0,0,1,1,2,2,3,3,4,4,5,5,6,6,7,7,8,8,9,9,10,10,11,11,12,12,13,13,14,14,15,15,16,16,17,17,18,18,20,20,21,21,22,22,23,23,24,24,25,25,26,26,27,27,28,28,29,29,30,30,32,32,33,33,34,34,35,35,36,36,37,37,38,38,43,43,44,44,45,45,46,46,47,47,48,48,49,49,50,50,51,51,52,52,53,53,54,54,55,55,56,56,57,57,58,58,59,59,60,60],"right_children":[2,4,6,8,10,12,14,16,18,20,22,24,26,28,30,32,34,36,38,-1,40,42,44,46,48,50,52,54,56,58,60,-1,62,64,66,68,70,72,74,-1,-1,-1,-1,76,78,80,82,84,86,88,90,92,94,96,98,100,102,104,106,108,110,-1,-1,-1,-1,-1,-1,-1,-1,-1,-1,-1,-1,-1,-1,-1,-1,-1,-1,-1,-1,-1,-1,-1,-1,-1,-1,-1,-1,-1,-1,-1,-1,-1,-1,-1,-1,-1,-1,-1,-1,-1,-1,-1,-1,-1,-1,-1,-1,-1,-1],"split_conditions":[8.0064764E2,5.854118E-3,2.1499908E0,-1.7804685E0,1.3942231E0,5.6544724E0,4.433917E-6,1.581994E-2,1.1427638E-1,7.008262E-1,8.35978E-4,1.0017675E-2,1.1209066E4,-1.8092033E0,4.987267E0,5.6089795E-1,-5.426606E-1,3.2996233E0,2.0419133E0,-1.01259105E-1,1.4991914E-1,5.4945797E-1,1.5946925E0,1.7201282E0,1.9455914E-5,4.003238E3,8.7972695E-1,-1.8153843E0,1.8350802E-5,9.911176E-2,1.0676608E3,-1.1207914E-1,3.922832E-6,-1.2535163E-2,3.8463254E0,2.6041873E0,1.5994641E-3,1.1948116E0,2.9936573E-1,1.1679856E-1,9.3152665E-2,-1.041774E-1,9.55268E-2,5.6567163E0,2.4025116E-2,-4.152214E0,2.0793917E0,3.9341685E-1,3.684763E-3,1.1115457E-3,2.8439774E-3,1.2879932E1,4.6611282E-1,3.328528E-6,1.0877589E2,3.174714E-6,1.8037373E-1,4.457074E-3,1.2308622E-1,2.0209943E-1,1.4811981E4,1.0533301E-1,-1.1473208E-1,-9.0315595E-2,1.8947081E-1,-1.0083795E-1,1.07167855E-1,-8.82273E-2,9.70609E-2,9.739054E-2,-3.910069E-2,4.7142033E-2,-5.5992138E-2,8.715567E-2,-6.656335E-2,-1.7315326E-2,9.22689E-2,9.8633476E-2,9.290496E-2,1.0621232E-1,-1.2144474E-1,-1.3151667E-1,9.294773E-2,9.60035E-2,-1.0353745E-1,8.508149E-2,-1.2140597E-1,-8.219533E-3,8.394324E-2,2.1357518E-2,8.5554555E-2,-9.788182E-3,-1.0482183E-1,-1.1672518E-1,8.920007E-2,9.7025886E-2,7.471575E-2,5.148044E-2,-1.2804061E-1,2.1121312E-2,-6.957679E-2,8.401859E-2,3.0400831E-2,7.272702E-2,-5.9252128E-2,-1.0047923E-1,1.1864669E-1,-1.1280098E-1,9.327851E-2,8.334479E-2,-1.1084482E-1],"split_indices":[5,10,2,14,0,4,13,22,21,1,12,22,5,14,4,1,19,7,0,0,3,1,0,7,6,5,7,14,6,20,5,0,13,21,1,1,12,0,20,0,0,0,0,11,22,7,11,11,12,12,12,4,16,13,4,13,20,12,22,19,5,0,0,0,0,0,0,0,0,0,0,0,0,0,0,0,0,0,0,0,0,0,0,0,0,0,0,0,0,0,0,0,0,0,0,0,0,0,0,0,0,0,0,0,0,0,0,0,0,0,0],"split_type":[0,0,0,0,0,0,0,0,0,0,0,0,0,0,0,0,0,0,0,0,0,0,0,0,0,0,0,0,0,0,0,0,0,0,0,0,0,0,0,0,0,0,0,0,0,0,0,0,0,0,0,0,0,0,0,0,0,0,0,0,0,0,0,0,0,0,0,0,0,0,0,0,0,0,0,0,0,0,0,0,0,0,0,0,0,0,0,0,0,0,0,0,0,0,0,0,0,0,0,0,0,0,0,0,0,0,0,0,0,0,0],"sum_hessian":[1.5769788E5,6.936378E4,8.83341E4,6.3989227E4,5.3745503E3,4.2371855E4,4.5962246E4,3.0131082E3,6.097612E4,2.646352E2,5.109915E3,2.4750288E3,3.989683E4,3.315904E4,1.2803207E4,2.714209E3,2.9889905E2,4.246566E4,1.851046E4,1.20017586E2,1.4461761E2,8.140668E1,5.0285083E3,9.340507E2,1.540978E3,3.8932883E4,9.639425E2,5.4833574E3,2.7675682E4,1.2668745E3,1.1536333E4,2.488087E1,2.6893281E3,4.490724E1,2.539918E2,3.8091332E4,4.3743286E3,1.4514201E4,3.9962588E3,1.9564041E1,1.2505357E2,4.8997005E1,3.2409668E1,1.4229279E3,3.6055806E3,1.6679773E2,7.67253E2,1.2995411E3,2.4143687E2,2.2093455E4,1.683943E4,7.4999115E2,2.1395139E2,4.640348E3,8.430091E2,2.45135E4,3.1621812E3,5.5005927E2,7.168152E2,2.4963625E2,1.1286696E4,2.6805647E3,8.763521E0,9.1001E0,3.580714E1,2.1781548E2,3.617634E1,3.7486492E4,6.0483636E2,1.5521251E3,2.8222036E3,2.2549202E3,1.2259281E4,3.0911924E3,9.0506647E2,2.1708673E2,1.2058412E3,2.0768306E3,1.5287499E3,3.7814426E1,1.2898329E2,1.2396069E1,7.5485693E2,1.9683151E1,1.279858E3,1.7163011E2,6.980677E1,5.0177484E2,2.159168E4,8.26499E3,8.574439E3,9.973531E1,6.5025586E2,1.7183441E1,1.9676794E2,2.7054124E3,1.9349357E3,7.8732245E2,5.568664E1,5.543464E3,1.8970037E4,2.1172175E3,1.0449634E3,3.966756E2,1.5338367E2,6.593852E2,5.7430016E1,1.8664296E2,6.2993282E1,1.1253213E4,3.348375E1],"tree_param":{"num_deleted":"0","num_feature":"23","num_nodes":"111","size_leaf_vector":"1"}},{"base_weights":[-2.820879E-3,-6.325381E-1,4.922642E-1,2.2771804E-1,-9.5965874E-1,8.9301693E-1,1.2610073E-1,6.196148E-1,-5.606565E-1,-1.0597932E0,1.2256265E0,3.031706E-2,9.949838E-1,-2.2316097E-1,1.0193473E0,1.8775254E-1,1.1660912E0,-1.1459788E0,8.2842743E-1,-1.1517882E0,4.9959463E-1,-1.15391366E-1,1.2515221E0,9.1474205E-1,-7.6752263E-1,1.0445544E0,-1.0131731E0,4.6516645E-1,-5.447996E-1,-4.7295398E-1,1.1625811E0,-7.0983624E-1,8.784751E-1,-1.1547136E-1,1.253949E0,-1.2887516E0,1.1739273E0,-1.8870031E0,1.3035407E0,-4.74558E-1,-1.2355318E0,1.3430089E0,-1.2485889E0,9.557196E-1,1.4286522E0,-5.572163E-1,1.2053064E0,-1.0183909E0,1.5567861E0,1.2060043E0,8.045965E-1,-1.3330572E0,1.287936E0,-1.5362997E0,6.594852E-1,6.277968E-1,-8.33899E-1,-8.953134E-1,1.3323152E0,-8.8963646E-1,1.2060779E0,9.067303E-2,-1.0665653E-1,9.3609914E-2,-1.3299059E-2,9.152719E-2,-6.1384767E-2,6.629388E-2,-1.00325555E-1,-1.1726877E-1,1.0092311E-1,-1.24815956E-1,-1.5068047E-1,1.0243837E-1,-1.5319219E-1,-6.763809E-2,1.18554614E-1,7.279194E-2,-8.8075235E-2,9.680996E-2,1.605241E-2,1.09386496E-1,-1.0391209E-1,7.979858E-2,-1.1591407E-1,1.04336664E-1,9.632662E-2,1.0674016E-1,-1.0595876E-1,-4.838169E-2,8.814164E-2,-8.95648E-2,6.499528E-2,1.13660686E-1,-1.0549885E-1,3.7954291E-3,8.646455E-2,2.7181813E-2,8.848525E-2,2.9403737E-2,-1.0575057E-1,-1.0156007E-1,1.0055332E-1,1.2899113E-2,-1.2383162E-1,2.987888E-2,9.8765105E-2,6.642062E-2,-8.51255E-2,2.6153691E-2,-6.936863E-2,3.2665703E-2,-8.7849595E-2,1.0659561E-1,-1.1340419E-1,-1.1184135E-1,9.532614E-2,8.49901E-2,-1.0796904E-1],"categories":[],"categories_nodes":[],"categories_segments":[],"categories_sizes":[],"default_left":[0,0,0,0,0,0,0,0,0,0,0,0,0,0,0,0,0,0,0,0,0,0,0,0,0,0,0,0,0,0,0,0,0,0,0,0,0,0,0,0,0,0,0,0,0,0,0,0,0,0,0,0,0,0,0,0,0,0,0,0,0,0,0,0,0,0,0,0,0,0,0,0,0,0,0,0,0,0,0,0,0,0,0,0,0,0,0,0,0,0,0,0,0,0,0,0,0,0,0,0,0,0,0,0,0,0,0,0,0,0,0,0,0,0,0,0,0,0,0],"id":12,"left_children":[1,3,5,7,9,11,13,15,17,19,21,23,25,27,29,31,33,35,37,39,41,-1,43,45,47,49,51,53,55,57,59,61,63,-1,65,67,69,71,73,75,77,79,81,83,85,87,89,91,93,95,97,99,101,103,105,107,109,111,113,115,117,-1,-1,-1,-1,-1,-1,-1,-1,-1,-1,-1,-1,-1,-1,-1,-1,-1,-1,-1,-1,-1,-1,-1,-1,-1,-1,-1,-1,-1,-1,-1,-1,-1,-1,-1,-1,-1,-1,-1,-1,-1,-1,-1,-1,-1,-1,-1,-1,-1,-1,-1,-1,-1,-1,-1,-1,-1,-1],"loss_changes":[4.979362E4,1.9783012E4,1.3120951E4,5.984377E3,1.114641E4,3.755418E3,1.4577603E4,3.053104E3,5.230187E3,6.9870586E3,1.6818384E2,3.1856377E3,3.8016133E3,7.437342E3,2.8080303E3,4.4817905E3,1.4148066E3,1.5003779E3,2.4630615E3,2.607586E3,4.0029275E3,0E0,1.1456885E2,9.164193E2,1.3855658E3,1.4425156E3,6.7909375E2,4.1619004E3,7.761789E3,8.7878516E2,1.070874E3,5.1322114E3,2.0028374E3,0E0,6.335244E2,1.3784795E3,2.0301657E2,4.0111694E0,9.0969556E2,5.3988457E3,2.1139492E3,8.1232666E1,5.8827954E2,4.0214008E2,2.442627E0,7.0660986E2,1.8354907E2,1.0905173E3,4.9950073E1,7.490625E2,2.8665605E3,2.5242993E2,4.798198E1,3.795525E2,1.7043081E3,2.6822468E3,3.4842139E3,4.578106E2,1.2541644E2,3.9964542E2,2.6206445E2,0E0,0E0,0E0,0E0,0E0,0E0,0E0,0E0,0E0,0E0,0E0,0E0,0E0,0E0,0E0,0E0,0E0,0E0,0E0,0E0,0E0,0E0,0E0,0E0,0E0,0E0,0E0,0E0,0E0,0E0,0E0,0E0,0E0,0E0,0E0,0E0,0E0,0E0,0E0,0E0,0E0,0E0,0E0,0E0,0E0,0E0,0E0,0E0,0E0,0E0,0E0,0E0,0E0,0E0,0E0,0E0,0E0,0E0],"parents":[2147483647,0,0,1,1,2,2,3,3,4,4,5,5,6,6,7,7,8,8,9,9,10,10,11,11,12,12,13,13,14,14,15,15,16,16,17,17,18,18,19,19,20,20,22,22,23,23,24,24,25,25,26,26,27,27,28,28,29,29,30,30,31,31,32,32,34,34,35,35,36,36,37,37,38,38,39,39,40,40,41,41,42,42,43,43,44,44,45,45,46,46,47,47,48,48,49,49,50,50,51,51,52,52,53,53,54,54,55,55,56,56,57,57,58,58,59,59,60,60],"right_children":[2,4,6,8,10,12,14,16,18,20,22,24,26,28,30,32,34,36,38,40,42,-1,44,46,48,50,52,54,56,58,60,62,64,-1,66,68,70,72,74,76,78,80,82,84,86,88,90,92,94,96,98,100,102,104,106,108,110,112,114,116,118,-1,-1,-1,-1,-1,-1,-1,-1,-1,-1,-1,-1,-1,-1,-1,-1,-1,-1,-1,-1,-1,-1,-1,-1,-1,-1,-1,-1,-1,-1,-1,-1,-1,-1,-1,-1,-1,-1,-1,-1,-1,-1,-1,-1,-1,-1,-1,-1,-1,-1,-1,-1,-1,-1,-1,-1,-1,-1],"split_conditions":[8.0064764E2,9.42516E-3,2.1499908E0,6.0479546E-1,1.0445858E-2,1.0856425E1,4.433917E-6,1.5362815E0,6.7375076E-6,2.3045325E0,2.9148844E-6,1.3067886E-1,1.0833813E4,3.2693067E-6,4.837862E0,6.963066E-1,1.7457734E-1,2.3174646E0,2.3944124E-3,1.5515643E-3,2.911863E-3,-1.15391366E-1,1.738958E0,7.008262E-1,2.3174646E0,4.003238E3,8.7972695E-1,1.2099375E-3,1.8037373E-1,5.03964E-1,1.0676608E3,1.2901308E2,3.9519123E-6,-1.1547136E-1,1.7934431E0,-4.152214E0,4.6618297E-3,8.982207E-1,5.785358E-3,7.610097E-2,-4.152214E0,2.8048377E-3,1.3901836E0,4.439584E-1,1.8079462E0,2.0760843E-3,1.7193837E-1,5.6570947E-2,8.400419E-1,1.1115457E-3,2.8832282E-3,1.2879932E1,6.332507E-1,2.989716E3,8.35181E0,1.7973776E2,2.3265732E3,2.4823342E-3,2.4774342E0,4.9146742E-1,1.4811981E4,9.067303E-2,-1.0665653E-1,9.3609914E-2,-1.3299059E-2,9.152719E-2,-6.1384767E-2,6.629388E-2,-1.00325555E-1,-1.1726877E-1,1.0092311E-1,-1.24815956E-1,-1.5068047E-1,1.0243837E-1,-1.5319219E-1,-6.763809E-2,1.18554614E-1,7.279194E-2,-8.8075235E-2,9.680996E-2,1.605241E-2,1.09386496E-1,-1.0391209E-1,7.979858E-2,-1.1591407E-1,1.04336664E-1,9.632662E-2,1.0674016E-1,-1.0595876E-1,-4.838169E-2,8.814164E-2,-8.95648E-2,6.499528E-2,1.13660686E-1,-1.0549885E-1,3.7954291E-3,8.646455E-2,2.7181813E-2,8.848525E-2,2.9403737E-2,-1.0575057E-1,-1.0156007E-1,1.0055332E-1,1.2899113E-2,-1.2383162E-1,2.987888E-2,9.8765105E-2,6.642062E-2,-8.51255E-2,2.6153691E-2,-6.936863E-2,3.2665703E-2,-8.7849595E-2,1.0659561E-1,-1.1340419E-1,-1.1184135E-1,9.532614E-2,8.49901E-2,-1.0796904E-1],"split_indices":[5,17,2,16,10,4,13,7,13,1,13,20,5,13,4,1,1,8,12,12,12,0,0,1,8,5,7,12,20,21,5,9,13,0,0,7,17,1,17,17,7,12,11,16,1,12,7,10,1,12,12,4,1,5,11,9,5,12,4,19,5,0,0,0,0,0,0,0,0,0,0,0,0,0,0,0,0,0,0,0,0,0,0,0,0,0,0,0,0,0,0,0,0,0,0,0,0,0,0,0,0,0,0,0,0,0,0,0,0,0,0,0,0,0,0,0,0,0,0],"split_type":[0,0,0,0,0,0,0,0,0,0,0,0,0,0,0,0,0,0,0,0,0,0,0,0,0,0,0,0,0,0,0,0,0,0,0,0,0,0,0,0,0,0,0,0,0,0,0,0,0,0,0,0,0,0,0,0,0,0,0,0,0,0,0,0,0,0,0,0,0,0,0,0,0,0,0,0,0,0,0,0,0,0,0,0,0,0,0,0,0,0,0,0,0,0,0,0,0,0,0,0,0,0,0,0,0,0,0,0,0,0,0,0,0,0,0,0,0,0,0],"sum_hessian":[1.5971394E5,7.0298445E4,8.941549E4,1.936721E4,5.093124E4,4.2690664E4,4.672483E4,1.2936674E4,6.4305366E3,4.8700203E4,2.2310332E3,4.5126104E3,3.8178055E4,3.3591297E4,1.3133532E4,7.226865E3,5.7098086E3,4.524296E3,1.9062408E3,4.5987465E4,2.7127373E3,1.9362722E1,2.2116704E3,2.1401047E3,2.3725056E3,3.7258812E4,9.1923895E2,1.0697503E4,2.2893793E4,1.1499824E3,1.198355E4,3.1427969E3,4.0840686E3,1.7223447E2,5.537574E3,4.2624204E3,2.6187534E2,2.834214E2,1.6228195E3,5.06156E3,4.0925906E4,1.8300555E3,8.8268176E2,8.3074493E2,1.3809254E3,3.526602E2,1.7874446E3,2.1418882E3,2.3061739E2,2.227057E4,1.4988244E4,8.07418E2,1.118209E2,9.4607776E2,9.751425E3,4.5277847E3,1.8366008E4,9.323537E2,2.176287E2,2.4831648E2,1.1735233E4,9.071379E2,2.235659E3,2.8569924E3,1.2270759E3,5.4021206E3,1.3545349E2,2.5836993E2,4.0040505E3,2.2050182E1,2.3982515E2,2.0925511E2,7.416627E1,1.5523341E3,7.048531E1,4.126347E3,9.352132E2,4.0355984E2,4.0522348E4,1.766386E3,6.3669556E1,6.78906E1,8.1479114E2,7.7652203E2,5.4222897E1,6.216956E2,7.592298E2,1.1082372E2,2.4183644E2,4.9034893E1,1.7384098E3,1.8889023E3,2.5298573E2,2.2614674E2,4.4706326E0,5.507785E2,2.1719793E4,7.864708E3,7.1235356E3,7.417107E1,7.33247E2,5.3016243E0,1.0651927E2,1.1274426E2,8.333335E2,7.4473315E3,2.3040935E3,3.856711E3,6.710736E2,2.1139758E3,1.6252032E4,1.947221E2,7.376316E2,2.0489372E2,1.2734976E1,1.8912527E2,5.9191208E1,1.1701451E4,3.3782856E1],"tree_param":{"num_deleted":"0","num_feature":"23","num_nodes":"119","size_leaf_vector":"1"}},{"base_weights":[6.8749795E-3,-3.6254373E-1,6.422306E-1,1.1571366E0,-5.1544106E-1,1.0665042E0,1.9064195E-1,1.2257468E0,-6.92785E-1,-6.7366654E-1,1.1971419E0,-9.014819E-1,1.0839835E0,-7.494233E-2,1.38792E0,1.017891E0,1.4355047E0,1.0113386E0,-1.6250813E0,3.1488267E-1,-8.90204E-1,1.2802577E0,-1.6741089E0,-2.2397687E0,1.0306867E-1,1.1008033E0,-2.518792E-1,1.0471517E0,-3.2684255E-1,1.2956042E0,1.8220339E0,1.061943E0,-1.1888473E0,2.2358093E0,1.3846358E0,-1.3717069E-1,9.799354E-2,-1.3516735E-1,-1.0320684E-1,1.8544812E-2,1.3339926E0,7.3454034E-1,-9.8157775E-1,1.3140838E0,-1.5727594E-1,-2.2350476E0,-1.0052015E-1,-1.0789411E-1,-2.3516436E0,9.650688E-1,1.2651643E0,-2.3019183E0,1.0412866E0,1.175622E0,4.1743085E-1,-5.172345E-1,1.1448381E0,1.7061952E0,1.2508795E0,-9.9522255E-2,1.8435572E0,8.8163026E-2,4.4058964E-2,-1.2582079E-1,9.106902E-2,1.2423162E-1,1.8423796E-1,9.8616324E-2,-1.0968177E-2,-8.2832836E-2,5.2260567E-2,-1.3024652E-1,9.7206354E-2,-1.053909E-1,7.71098E-2,-7.2832964E-2,4.3984264E-2,-1.1577425E-2,9.5421195E-2,-1.1380653E-1,-1.7966911E-1,-1.6957591E-1,-1.22963764E-1,5.0757267E-2,9.174234E-2,8.884964E-2,-1.4978693E-1,-9.942469E-2,-1.7367035E-1,-1.818823E-1,8.175241E-2,1.00391746E-1,7.26725E-2,8.503162E-2,-6.585094E-2,1.4029269E-2,-9.1327205E-2,8.633463E-2,-1.5151393E-1,1.2059125E-1,-9.5885135E-2,2.9357454E-2,9.084109E-2,1.417199E-1,1.0459409E-1],"categories":[],"categories_nodes":[],"categories_segments":[],"categories_sizes":[],"default_left":[0,0,0,0,0,0,0,0,0,0,0,0,0,0,0,0,0,0,0,0,0,0,0,0,0,0,0,0,0,0,0,0,0,0,0,0,0,0,0,0,0,0,0,0,0,0,0,0,0,0,0,0,0,0,0,0,0,0,0,0,0,0,0,0,0,0,0,0,0,0,0,0,0,0,0,0,0,0,0,0,0,0,0,0,0,0,0,0,0,0,0,0,0,0,0,0,0,0,0,0,0,0,0,0,0],"id":13,"left_children":[1,3,5,7,9,11,13,15,17,19,21,23,25,27,29,31,33,35,37,39,41,43,45,47,-1,49,51,53,55,57,59,61,63,65,67,-1,-1,-1,-1,69,71,73,75,77,-1,79,-1,-1,81,83,85,87,89,91,93,95,97,99,101,-1,103,-1,-1,-1,-1,-1,-1,-1,-1,-1,-1,-1,-1,-1,-1,-1,-1,-1,-1,-1,-1,-1,-1,-1,-1,-1,-1,-1,-1,-1,-1,-1,-1,-1,-1,-1,-1,-1,-1,-1,-1,-1,-1,-1,-1],"loss_changes":[3.551998E4,2.223561E4,1.0660266E4,1.1111885E3,2.3561209E4,9.877988E2,8.57077E3,3.6632617E2,4.996956E2,1.7038016E4,1.7571445E3,8.073827E2,6.391836E2,6.236041E3,1.9374902E2,4.134834E2,1.6773242E2,1.314278E2,6.5111084E0,4.3194E3,9.693953E3,8.5571875E2,2.4481384E1,9.0529175E0,0E0,6.2527344E2,9.418949E2,3.2673535E2,5.048973E3,7.20332E1,6.2361816E1,3.544541E2,1.2881306E2,4.0838257E1,1.4729248E2,0E0,0E0,0E0,0E0,9.69738E3,5.653135E2,2.8604307E3,5.8616836E3,5.143115E2,0E0,7.947052E0,0E0,0E0,1.5616455E0,1.2746846E3,1.8069336E2,1.816681E1,1.0348634E2,1.1787012E2,7.449803E2,9.016057E3,6.0731934E2,2.2400269E1,1.4148145E2,0E0,5.075708E1,0E0,0E0,0E0,0E0,0E0,0E0,0E0,0E0,0E0,0E0,0E0,0E0,0E0,0E0,0E0,0E0,0E0,0E0,0E0,0E0,0E0,0E0,0E0,0E0,0E0,0E0,0E0,0E0,0E0,0E0,0E0,0E0,0E0,0E0,0E0,0E0,0E0,0E0,0E0,0E0,0E0,0E0,0E0,0E0],"parents":[2147483647,0,0,1,1,2,2,3,3,4,4,5,5,6,6,7,7,8,8,9,9,10,10,11,11,12,12,13,13,14,14,15,15,16,16,17,17,18,18,19,19,20,20,21,21,22,22,23,23,25,25,26,26,27,27,28,28,29,29,30,30,31,31,32,32,33,33,34,34,39,39,40,40,41,41,42,42,43,43,45,45,48,48,49,49,50,50,51,51,52,52,53,53,54,54,55,55,56,56,57,57,58,58,60,60],"right_children":[2,4,6,8,10,12,14,16,18,20,22,24,26,28,30,32,34,36,38,40,42,44,46,48,-1,50,52,54,56,58,60,62,64,66,68,-1,-1,-1,-1,70,72,74,76,78,-1,80,-1,-1,82,84,86,88,90,92,94,96,98,100,102,-1,104,-1,-1,-1,-1,-1,-1,-1,-1,-1,-1,-1,-1,-1,-1,-1,-1,-1,-1,-1,-1,-1,-1,-1,-1,-1,-1,-1,-1,-1,-1,-1,-1,-1,-1,-1,-1,-1,-1,-1,-1,-1,-1,-1,-1],"split_conditions":[5.854118E-3,-1.7896627E0,2.1318188E0,3.3796758E-3,7.1048546E-1,1.7457734E-1,3.028167E-3,5.80271E0,-4.288402E-1,8.212202E-2,6.2152195E-1,7.109537E-1,1.980215E0,-1.8092033E0,2.5461955E0,4.0476627E0,-1.0751519E0,1.7933499E0,1.7151743E2,2.3174646E0,3.174714E-6,4.733621E-6,-1.5284921E0,1.4737232E-1,1.0306867E-1,1.2049506E0,6.615738E-1,-1.8153843E0,4.342198E-6,4.1442763E-6,1.5449067E-4,-1.8153843E0,4.6362466E-6,-1.8092033E0,3.4974968E-1,-1.3717069E-1,9.799354E-2,-1.3516735E-1,-1.0320684E-1,1.5920123E0,8.831889E-3,1.1115457E-3,5.2113165E-3,4.1785356E-6,-1.5727594E-1,2.4384724E-3,-1.0052015E-1,-1.0789411E-1,3.2114856E-6,3.318491E-3,1.591024E1,1.2816697E0,1.1918345E-3,5.7614334E-6,3.2390049E-6,3.328528E-6,1.0278178E1,3.006028E0,3.2778862E-3,-9.9522255E-2,4.2464635E-6,8.8163026E-2,4.4058964E-2,-1.2582079E-1,9.106902E-2,