{"learner":{"attributes":{"scikit_learn":"{\"_estimator_type\": \"classifier\"}"},"feature_names":[],"feature_types":[],"gradient_booster":{"gbtree":{"model":{"cats":{"enc":[],"feature_segments":[],"sorted_idx":[]},"gbtree_model_param":{"num_parallel_tree":"1","num_trees":"10"},"iteration_indptr":[0,1,2,3,4,5,6,7,8,9,10],"tree_info":[0,0,0,0,0,0,0,0,0,0],"trees":[{"base_weights":[-4.6152193E-2,-1.9134465E0,1.649745E0,-1.3992326E-1,1.365721E-1,1.7776421E0,-1.3801418E-1,1.898025E0,-1.37751E-1,1.9173874E0,-1.2666667E-1,-1.24E-1,1.933326E0,1.360938E-1,-1.17599994E-1],"categories":[],"categories_nodes":[],"categories_segments":[],"categories_sizes":[],"default_left":[0,0,0,0,0,0,0,0,0,0,0,0,0,0,0],"id":0,"left_children":[1,3,5,-1,-1,7,-1,9,-1,11,-1,-1,13,-1,-1],"loss_changes":[1.2404521E4,6.1959326E2,9.542837E2,0E0,0E0,8.979917E2,0E0,1.4144629E2,0E0,1.1587207E2,0E0,0E0,7.808789E1,0E0,0E0],"parents":[2147483647,0,0,1,1,2,2,5,5,7,7,9,9,12,12],"right_children":[2,4,6,-1,-1,8,-1,10,-1,12,-1,-1,14,-1,-1],"split_conditions":[3.3131298E1,3.0267484E0,1.5323397E0,-1.3992326E-1,1.365721E-1,9.0344834E-1,-1.3801418E-1,3.0186367E-1,-1.37751E-1,-4.9931502E-1,-1.2666667E-1,-1.24E-1,3.2103004E0,1.360938E-1,-1.17599994E-1],"split_indices":[4,3,7,0,0,20,0,15,0,21,0,0,2,0,0],"split_type":[0,0,0,0,0,0,0,0,0,0,0,0,0,0,0],"sum_hessian":[3.9151309E3,1.8633413E3,2.0517898E3,1.8235E3,3.984127E1,1.9822897E3,6.95E1,1.9210397E3,6.125E1,1.9115397E3,9.5E0,7.75E0,1.9037897E3,1.8985397E3,5.25E0],"tree_param":{"num_deleted":"0","num_feature":"23","num_nodes":"15","size_leaf_vector":"1"}},{"base_weights":[1.01313464E-1,-1.3078687E-1,1.5303167E0,1.6547455E0,-1.2972116E-1,-1.3029873E-1,1.7315897E0,-1.302046E-1,1.7714676E0,1.7934116E0,-1.22267105E-1,7.755214E-2,1.3007039E-1],"categories":[],"categories_nodes":[],"categories_segments":[],"categories_sizes":[],"default_left":[0,0,0,0,0,0,0,0,0,0,0,0,0],"id":1,"left_children":[1,-1,3,5,-1,-1,7,-1,9,11,-1,-1,-1],"loss_changes":[1.1894443E4,0E0,1.0341045E3,6.416089E2,0E0,0E0,3.3453125E2,0E0,1.7975488E2,9.8862305E1,0E0,0E0,0E0],"parents":[2147483647,0,0,2,2,3,3,6,6,8,8,9,9],"right_children":[2,-1,4,6,-1,-1,8,-1,10,12,-1,-1,-1],"split_conditions":[4.6149E-1,-1.3078687E-1,9.292625E-1,-1.7206771E0,-1.2972116E-1,-1.3029873E-1,9.488157E-3,-1.302046E-1,7.7753525E3,1.6724247E0,-1.22267105E-1,7.755214E-2,1.3007039E-1],"split_indices":[3,0,7,19,0,0,22,0,5,0,0,0,0],"split_type":[0,0,0,0,0,0,0,0,0,0,0,0,0],"sum_hessian":[4.2238086E3,1.7757954E3,2.4480132E3,2.3616726E3,8.634049E1,5.001294E1,2.3116597E3,2.4883097E1,2.2867766E3,2.2730886E3,1.3687968E1,1.9769783E2,2.0753906E3],"tree_param":{"num_deleted":"0","num_feature":"23","num_nodes":"13","size_leaf_vector":"1"}},{"base_weights":[3.7127964E-3,-1.287447E0,1.3843132E0,1.2318868E-1,-1.2348496E-1,1.6069458E0,-1.2714691E-1,1.6586851E0,-1.2118639E-1,1.6956179E0,-1.17251925E-1,3.009179E-1,1.7524029E0,1.2337507E-1,-1.19738795E-1,1.23808905E-1,-1.2232755E-1],"categories":[],"categories_nodes":[],"categories_segments":[],"categories_sizes":[],"default_left":[0,0,0,0,0,0,0,0,0,0,0,0,0,0,0,0,0],"id":2,"left_children":[1,3,5,-1,-1,7,-1,9,-1,11,-1,13,15,-1,-1,-1,-1],"loss_changes":[7.001242E3,2.9508281E3,1.3554355E3,0E0,0E0,3.0946777E2,0E0,2.1812988E2,0E0,1.3647803E2,0E0,2.0553098E2,9.788281E1,0E0,0E0,0E0,0E0],"parents":[2147483647,0,0,1,1,2,2,5,5,7,7,9,9,11,11,12,12],"right_children":[2,4,6,-1,-1,8,-1,10,-1,12,-1,14,16,-1,-1,-1,-1],"split_conditions":[2.306294E-2,1.0146013E-1,4.178226E0,1.2318868E-1,-1.2348496E-1,4.23258E-1,-1.2714691E-1,9.911309E-1,-1.2118639E-1,2E0,-1.17251925E-1,1.4914284E0,1.0502693E-1,1.2337507E-1,-1.19738795E-1,1.23808905E-1,-1.2232755E-1],"split_indices":[10,16,11,0,0,21,0,7,0,2,0,0,17,0,0,0,0],"split_type":[0,0,0,0,0,0,0,0,0,0,0,0,0,0,0,0,0],"sum_hessian":[3.9255989E3,2.0285415E3,1.8970574E3,2.7400482E2,1.7545367E3,1.7741499E3,1.2290748E2,1.747567E3,2.6582922E1,1.7289045E3,1.8662462E1,6.788459E1,1.6610199E3,3.9388065E1,2.8496523E1,1.6538143E3,7.2055464E0],"tree_param":{"num_deleted":"0","num_feature":"23","num_nodes":"17","size_leaf_vector":"1"}},{"base_weights":[3.171998E-2,-1.5908681E0,1.4062517E0,-1.1728092E-1,1.4600535E-1,-1.1543071E-1,1.4995866E0,-1.164666E-1,1.5709306E0,-1.15610555E-1,1.6091316E0,1.6270512E0,-1.092639E-1,-1.1194272E-1,1.1466226E-1],"categories":[],"categories_nodes":[],"categories_segments":[],"categories_sizes":[],"default_left":[0,0,0,0,0,0,0,0,0,0,0,0,0,0,0],"id":3,"left_children":[1,3,5,-1,-1,-1,7,-1,9,-1,11,13,-1,-1,-1],"loss_changes":[8.700514E3,5.59812E2,6.047217E2,0E0,0E0,0E0,4.6524658E2,0E0,2.495E2,0E0,1.1513965E2,7.246582E1,0E0,0E0,0E0],"parents":[2147483647,0,0,1,1,2,2,6,6,8,8,10,10,11,11],"right_children":[2,4,6,-1,-1,-1,8,-1,10,-1,12,14,-1,-1,-1],"split_conditions":[2.6673971E1,3.4615347E0,1.258962E-3,-1.1728092E-1,1.4600535E-1,-1.1543071E-1,-1.7760684E0,-1.164666E-1,7.835972E-3,-1.15610555E-1,7.7753525E3,-5.02443E-1,-1.092639E-1,-1.1194272E-1,1.1466226E-1],"split_indices":[4,1,12,0,0,0,19,0,22,0,5,21,0,0,0],"split_type":[0,0,0,0,0,0,0,0,0,0,0,0,0,0,0],"sum_hessian":[3.8990496E3,1.7881003E3,2.1109492E3,1.7484259E3,3.9674465E1,6.2081493E1,2.0488677E3,4.4696613E1,2.0041711E3,2.2985197E1,1.981186E3,1.9705337E3,1.0652277E1,6.1936955E0,1.96434E3],"tree_param":{"num_deleted":"0","num_feature":"23","num_nodes":"15","size_leaf_vector":"1"}},{"base_weights":[-8.5738756E-2,-1.611892E0,1.3879976E0,-1.178001E-1,1.13671646E-1,1.537992E0,-1.2101272E-1,-1.2276282E-1,1.6084315E0,1.6738533E0,-1.18080124E-1,1.6905752E0,-1.09873325E-1,-8.0801204E-2,1.1861571E-1],"categories":[],"categories_nodes":[],"categories_segments":[],"categories_sizes":[],"default_left":[0,0,0,0,0,0,0,0,0,0,0,0,0,0,0],"id":4,"left_children":[1,3,5,-1,-1,7,-1,-1,9,11,-1,13,-1,-1,-1],"loss_changes":[8.263411E3,4.171914E2,8.764719E2,0E0,0E0,4.1643896E2,0E0,0E0,3.7944727E2,9.558838E1,0E0,2.1043945E1,0E0,0E0,0E0],"parents":[2147483647,0,0,1,1,2,2,5,5,8,8,9,9,11,11],"right_children":[2,4,6,-1,-1,8,-1,-1,10,12,-1,14,-1,-1,-1],"split_conditions":[3.3131298E1,3.4615347E0,4.6765265E0,-1.178001E-1,1.13671646E-1,1.365839E-3,-1.2101272E-1,-1.2276282E-1,2.1644819E0,3.0186367E-1,-1.18080124E-1,-5.1564175E-1,-1.09873325E-1,-8.0801204E-2,1.1861571E-1],"split_indices":[4,1,11,0,0,12,0,0,1,15,0,21,0,0,0],"split_type":[0,0,0,0,0,0,0,0,0,0,0,0,0,0,0],"sum_hessian":[3.6720244E3,1.8038856E3,1.8681388E3,1.7656417E3,3.824389E1,1.7828455E3,8.5293335E1,3.6850838E1,1.7459946E3,1.7124884E3,3.350621E1,1.7041812E3,8.307273E0,1.9500601E0,1.7022311E3],"tree_param":{"num_deleted":"0","num_feature":"23","num_nodes":"15","size_leaf_vector":"1"}},{"base_weights":[6.879438E-2,-1.4596922E0,1.2560214E0,1.2870975E-1,-1.078572E-1,1.3518326E0,-1.0718096E-1,1.4426012E0,-1.0784924E-1,-1.2571305E-1,1.4747542E0,1.4941739E0,-1.0201668E-1,1.0551455E-1,-1.0577061E-1],"categories":[],"categories_nodes":[],"categories_segments":[],"categories_sizes":[],"default_left":[0,0,0,0,0,0,0,0,0,0,0,0,0,0,0],"id":5,"left_children":[1,3,5,-1,-1,7,-1,9,-1,-1,11,13,-1,-1,-1],"loss_changes":[6.9577544E3,4.5135864E2,5.7833887E2,0E0,0E0,5.501113E2,0E0,2.1338232E2,0E0,0E0,1.16313965E2,8.114795E1,0E0,0E0,0E0],"parents":[2147483647,0,0,1,1,2,2,5,5,7,7,10,10,11,11],"right_children":[2,4,6,-1,-1,8,-1,10,-1,-1,12,14,-1,-1,-1],"split_conditions":[4.6149E-1,3.2726757E-6,1.5323397E0,1.2870975E-1,-1.078572E-1,5.048411E-1,-1.0718096E-1,-4.3601862E-1,-1.0784924E-1,-1.2571305E-1,7.7753525E3,3.2103004E0,-1.0201668E-1,1.0551455E-1,-1.0577061E-1],"split_indices":[3,13,7,0,0,21,0,21,0,0,5,2,0,0,0],"split_type":[0,0,0,0,0,0,0,0,0,0,0,0,0,0,0],"sum_hessian":[3.83218E3,1.6752117E3,2.1569683E3,3.9693077E1,1.6355186E3,2.0857832E3,7.118524E1,2.022808E3,6.2975044E1,1.9346466E1,2.0034615E3,1.990767E3,1.2694545E1,1.9825725E3,8.194511E0],"tree_param":{"num_deleted":"0","num_feature":"23","num_nodes":"15","size_leaf_vector":"1"}},{"base_weights":[7.9147115E-2,-1.4060978E0,1.2179396E0,1.2137567E-1,-1.0397965E-1,-7.512629E-2,1.437691E0,1.3895386E0,-1.5792574E0,-1.09568946E-1,1.4703398E0,-1.02018245E-1,1.0876225E-1,-1.3432643E-1,-1.0474342E-1,1.4877489E0,-1.16516635E-1,1.5016257E0,-9.965438E-2,1.06029466E-1,-9.374958E-2],"categories":[],"categories_nodes":[],"categories_segments":[],"categories_sizes":[],"default_left":[0,0,0,0,0,0,0,0,0,0,0,0,0,0,0,0,0,0,0,0,0],"id":6,"left_children":[1,3,5,-1,-1,7,9,11,13,-1,15,-1,-1,-1,-1,17,-1,19,-1,-1,-1],"loss_changes":[6.288683E3,4.0450293E2,5.980923E2,0E0,0E0,6.7774E2,1.7866162E2,7.5141815E1,1.4031372E0,0E0,9.961865E1,0E0,0E0,0E0,0E0,7.367383E1,0E0,6.753613E1,0E0,0E0,0E0],"parents":[2147483647,0,0,1,1,2,2,5,5,6,6,7,7,8,8,10,10,15,15,17,17],"right_children":[2,4,6,-1,-1,8,10,12,14,-1,16,-1,-1,-1,-1,18,-1,20,-1,-1,-1],"split_conditions":[4.6149E-1,3.2726757E-6,2.1468448E-2,1.2137567E-1,-1.0397965E-1,2.498081E3,5.866285E-1,1.0335773E0,3.3673884E-6,-1.09568946E-1,1.0502693E-1,-1.02018245E-1,1.0876225E-1,-1.3432643E-1,-1.0474342E-1,6.1495914E0,-1.16516635E-1,7.7753525E3,-9.965438E-2,1.06029466E-1,-9.374958E-2],"split_indices":[3,13,22,0,0,5,3,1,13,0,17,0,0,0,0,11,0,5,0,0,0],"split_type":[0,0,0,0,0,0,0,0,0,0,0,0,0,0,0,0,0,0,0,0,0],"sum_hessian":[3.7160532E3,1.612609E3,2.1034443E3,3.922108E1,1.5733878E3,3.0564127E2,1.797803E3,1.5489078E2,1.5075049E2,1.883097E1,1.778972E3,8.017228E0,1.4687355E2,2.52349E1,1.25515594E2,1.7696698E3,9.302217E0,1.7617567E3,7.913001E0,1.7541466E3,7.6101584E0],"tree_param":{"num_deleted":"0","num_feature":"23","num_nodes":"21","size_leaf_vector":"1"}},{"base_weights":[1.2709227E-2,-1.5683633E0,1.3619969E0,-1.14606574E-1,1.10342026E-1,1.4745724E0,-1.1474456E-1,1.5651704E0,-3.3741263E-1,1.5900908E0,-1.1408201E-1,1.1171305E-1,-1.1305147E-1,1.6122334E0,-1.15146615E-1,-9.096141E-2,1.1326813E-1],"categories":[],"categories_nodes":[],"categories_segments":[],"categories_sizes":[],"default_left":[0,0,0,0,0,0,0,0,0,0,0,0,0,0,0,0,0],"id":7,"left_children":[1,3,5,-1,-1,7,-1,9,11,13,-1,-1,-1,15,-1,-1,-1],"loss_changes":[8.239313E3,3.877461E2,7.0646826E2,0E0,0E0,3.3033398E2,0E0,1.5494434E2,2.4090765E2,1.3869824E2,0E0,0E0,0E0,3.4421387E1,0E0,0E0,0E0],"parents":[2147483647,0,0,1,1,2,2,5,5,7,7,8,8,9,9,13,13],"right_children":[2,4,6,-1,-1,8,-1,10,12,14,-1,-1,-1,16,-1,-1,-1],"split_conditions":[2.6673971E1,1.6276997E0,1.029371E0,-1.14606574E-1,1.10342026E-1,9.0344834E-1,-1.1474456E-1,4.6765265E0,1.7706177E0,3.0186367E-1,-1.1408201E-1,1.1171305E-1,-1.1305147E-1,-5.0700164E-1,-1.15146615E-1,-9.096141E-2,1.1326813E-1],"split_indices":[4,3,7,0,0,20,0,11,0,15,0,0,0,21,0,0,0],"split_type":[0,0,0,0,0,0,0,0,0,0,0,0,0,0,0,0,0],"sum_hessian":[3.8601982E3,1.7773579E3,2.0828403E3,1.7397344E3,3.7623547E1,2.0080277E3,7.4812675E1,1.9125385E3,9.5489296E1,1.8982345E3,1.4303963E1,3.7895546E1,5.759375E1,1.8858284E3,1.2406109E1,3.359065E0,1.8824692E3],"tree_param":{"num_deleted":"0","num_feature":"23","num_nodes":"17","size_leaf_vector":"1"}},{"base_weights":[-5.0351705E-2,-1.4544702E0,1.2511799E0,1.2586108E-1,-1.0733406E-1,-9.95024E-1,1.5112094E0,-1.1237767E-1,1.03358604E-1,1.5281724E0,-1.15733355E-1,1.5434498E0,-9.6980125E-2,1.5578997E0,-9.5810376E-2,1.287398E-1,1.0846737E-1],"categories":[],"categories_nodes":[],"categories_segments":[],"categories_sizes":[],"default_left":[0,0,0,0,0,0,0,0,0,0,0,0,0,0,0,0,0],"id":8,"left_children":[1,3,5,-1,-1,7,9,-1,-1,11,-1,13,-1,15,-1,-1,-1],"loss_changes":[6.433478E3,4.371809E2,1.0685815E3,0E0,0E0,2.8923227E2,9.044287E1,0E0,0E0,7.467456E1,0E0,7.0368164E1,0E0,9.4750977E-1,0E0,0E0,0E0],"parents":[2147483647,0,0,1,1,2,2,5,5,6,6,9,9,11,11,13,13],"right_children":[2,4,6,-1,-1,8,10,-1,-1,12,-1,14,-1,16,-1,-1,-1],"split_conditions":[5.866285E-1,3.2726757E-6,2.2599664E-2,1.2586108E-1,-1.0733406E-1,5.134337E-1,9.579561E-2,-1.1237767E-1,1.03358604E-1,7.7753525E3,-1.15733355E-1,6.1495914E0,-9.6980125E-2,-1.7573725E0,-9.5810376E-2,1.287398E-1,1.0846737E-1],"split_indices":[3,13,22,0,0,10,17,0,0,5,0,11,0,19,0,0,0],"split_type":[0,0,0,0,0,0,0,0,0,0,0,0,0,0,0,0,0],"sum_hessian":[3.5183665E3,1.6924259E3,1.8259406E3,3.955403E1,1.6528718E3,1.8915367E2,1.6367869E3,1.5197334E2,3.718033E1,1.6285743E3,8.21259E0,1.6205472E3,8.027074E0,1.6130087E3,7.5385785E0,4.027382E1,1.5727349E3],"tree_param":{"num_deleted":"0","num_feature":"23","num_nodes":"17","size_leaf_vector":"1"}},{"base_weights":[2.1231605E-2,-1.3882406E0,1.1843537E0,-1.0207199E-1,1.3733798E0,-4.3721747E-2,1.4085824E0,1.06351495E-1,-6.742643E-2,-9.513544E-1,1.0549613E-1,-1.00869685E-1,1.4393872E0,-1.06931105E-1,1.0290163E-1,1.4585457E0,-1.06939256E-1,1.4716129E0,-9.539103E-2,-9.011418E-2,1.03498526E-1],"categories":[],"categories_nodes":[],"categories_segments":[],"categories_sizes":[],"default_left":[0,0,0,0,0,0,0,0,0,0,0,0,0,0,0,0,0,0,0,0,0],"id":9,"left_children":[1,3,5,-1,7,9,11,-1,-1,13,-1,-1,15,-1,-1,17,-1,19,-1,-1,-1],"loss_changes":[5.7422896E3,3.0784082E2,5.285105E2,0E0,1.4975075E1,4.198494E2,1.4452344E2,0E0,0E0,2.6473743E2,0E0,0E0,9.3517334E1,0E0,0E0,6.0849365E1,0E0,3.2321777E1,0E0,0E0,0E0],"parents":[2147483647,0,0,1,1,2,2,4,4,5,5,6,6,9,9,12,12,15,15,17,17],"right_children":[2,4,6,-1,8,10,12,-1,-1,14,-1,-1,16,-1,-1,18,-1,20,-1,-1,-1],"split_conditions":[4.6149E-1,3.265707E0,2.1468448E-2,-1.0207199E-1,1.4909022E0,5.134337E-1,5.866285E-1,1.06351495E-1,-6.742643E-2,2.2424962E-1,1.0549613E-1,-1.00869685E-1,1.0502693E-1,-1.06931105E-1,1.0290163E-1,6.1495914E0,-1.06939256E-1,1.6721398E0,-9.539103E-2,-9.011418E-2,1.03498526E-1],"split_indices":[3,18,22,0,0,10,3,0,0,15,0,0,17,0,0,11,0,0,0,0,0],"split_type":[0,0,0,0,0,0,0,0,0,0,0,0,0,0,0,0,0,0,0,0,0],"sum_hessian":[3.5007004E3,1.5826501E3,1.9180502E3,1.5440238E3,3.8626385E1,2.96262E2,1.6217882E3,3.6685097E1,1.9412892E0,1.871288E2,1.0913318E2,1.6854929E1,1.6049332E3,1.5145506E2,3.5673737E1,1.5951418E3,9.791367E0,1.5882639E3,6.8779616E0,3.5207195E0,1.5847432E3],"tree_param":{"num_deleted":"0","num_feature":"23","num_nodes":"21","size_leaf_vector":"1"}}]},"name":"gbtree"},"name":"dart","weight_drop":[9.771987E-1,8.535231E-1,1E0,9.661836E-1,9.1326976E-1,1E0,9.661836E-1,3.2573292E-1,4.830918E-1,9.345794E-1]},"learner_model_param":{"base_score":"[5E-1]","boost_from_average":"1","num_class":"0","num_feature":"23","num_target":"1"},"objective":{"name":"binary:logistic","reg_loss_param":{"scale_pos_weight":"159.365082"}}},"version":[3,2,0]}